baseline/conv2d/kernel:0
(5, 5, 3, 6)
[[[[ 1.58726096e-01  2.55755708e-02 -5.42819686e-02  5.06775454e-02
     1.08660504e-01 -8.61491337e-02]
   [-1.46219477e-01 -2.40504593e-01 -1.10448919e-01  1.54886454e-01
     2.01161746e-02  7.12481663e-02]
   [-2.42105275e-02 -1.90928504e-01  1.23593941e-01 -2.57215789e-03
    -1.41513377e-01  6.25131140e-03]]

  [[ 6.73942938e-02 -1.06771901e-01  1.82356149e-01 -2.33679444e-01
     1.84750482e-01 -9.69956536e-03]
   [-7.48876333e-02 -1.93174720e-01 -9.02273357e-02  1.44965127e-02
    -4.48898301e-02  1.54749230e-01]
   [ 1.88915670e-01 -7.99855664e-02  1.54561058e-01 -3.84074412e-02
    -1.03957817e-01  6.23645335e-02]]

  [[ 3.90871912e-02  9.78200138e-03 -1.33114055e-01  2.37908158e-02
     1.65946111e-01 -2.97893956e-02]
   [ 1.20251544e-01  5.61486976e-03 -2.39408035e-02 -1.77684024e-01
     3.89178060e-02 -3.28574404e-02]
   [ 1.73310474e-01  7.12849796e-02  2.07387134e-01  6.25939891e-02
     5.41174375e-02 -6.14855811e-02]]

  [[-1.06350123e-03  6.42663464e-02  4.46088426e-02 -9.65996608e-02
     5.88438511e-02  3.37449051e-02]
   [-1.28832348e-02  8.31454098e-02  1.08464062e-01  2.92787179e-02
     2.05526993e-01 -2.15125844e-01]
   [ 2.07595930e-01  2.65781909e-01 -2.45465394e-02  9.04288068e-02
    -1.15882747e-01 -1.47713814e-02]]

  [[-1.28468037e-01 -1.61607601e-02 -2.27234542e-01  1.30875796e-01
     1.24224648e-01 -1.03656165e-02]
   [ 6.10073581e-02 -5.19747175e-02 -2.27153171e-02  9.34121832e-02
     5.19298613e-02  1.30107298e-01]
   [-3.61616574e-02  1.01699831e-03 -5.28269336e-02 -4.92055304e-02
     5.96564338e-02 -1.04395244e-02]]]


 [[[ 2.24841893e-01 -1.53004572e-01  3.91507670e-02 -1.74774796e-01
     1.95719134e-02 -9.89655405e-02]
   [-8.92966613e-02 -1.38353437e-01 -7.15350658e-02 -5.26631325e-02
     7.08152875e-02 -2.50971057e-02]
   [-7.60863870e-02 -8.30786973e-02 -2.51427621e-01 -2.73208112e-01
     4.72972766e-02 -3.60134877e-02]]

  [[ 2.34248370e-01  7.88153261e-02  1.84758082e-01 -3.76372859e-02
     1.03231788e-01  2.20409438e-01]
   [ 7.70846084e-02 -4.02338989e-02 -2.42271870e-02 -3.01826522e-02
    -2.24358201e-01  7.83162117e-02]
   [ 9.76628810e-02 -1.11392252e-01 -1.85587391e-01 -2.40504351e-02
    -1.58411250e-01  2.66559273e-01]]

  [[ 1.75441518e-01 -1.33510694e-01  1.71521395e-01  1.90690756e-01
    -1.65620640e-01  8.51863697e-02]
   [ 2.63501018e-01  1.57357365e-01  9.22158360e-02  1.71791807e-01
    -2.93349754e-03 -4.19950299e-02]
   [ 1.08204685e-01  2.24548623e-01 -1.72608778e-01 -3.56600285e-02
    -9.02532637e-02 -1.37119070e-01]]

  [[ 2.58050442e-01 -7.27308095e-02  1.76916838e-01  2.77785569e-01
    -3.69363390e-02 -1.51516408e-01]
   [ 1.18272252e-01  9.13300365e-02  3.32848243e-02 -1.98892020e-02
    -1.51678575e-02 -2.54046917e-01]
   [ 2.81139195e-01  2.72719771e-01  1.05745606e-01 -4.38001491e-02
    -2.38321394e-01 -8.18854570e-02]]

  [[ 1.95462152e-01  9.89363641e-02 -1.78866431e-01 -2.13031862e-02
    -1.27299458e-01  9.13613513e-02]
   [-1.16266146e-01 -7.98822418e-02  9.78771746e-02 -1.46675199e-01
    -1.44462839e-01  1.88161321e-02]
   [ 1.63479298e-01 -1.60675526e-01  1.79608241e-01  5.75386696e-02
     5.52444812e-03  7.57452771e-02]]]


 [[[ 1.75122410e-01 -8.20318386e-02  9.70551297e-02  1.34488568e-01
    -4.41105179e-02 -1.57135189e-01]
   [-2.72002108e-02 -3.50718230e-01 -1.89512044e-01  2.60622203e-01
    -1.34783750e-02  1.47490669e-02]
   [-1.28027037e-01 -2.26012513e-01 -9.36686918e-02  8.66840556e-02
    -3.80847752e-02 -1.41063452e-01]]

  [[-3.18721570e-02 -1.29989207e-01 -2.86671203e-02  1.15064867e-01
    -7.11750314e-02  1.79050982e-01]
   [ 1.86735634e-02  7.09554553e-02 -2.25764379e-01  4.71102782e-02
     1.46328330e-01  2.55672097e-01]
   [ 1.82294279e-01  8.87000039e-02 -1.13446489e-01  1.87125564e-01
    -2.06541512e-02  2.75108606e-01]]

  [[ 2.48070896e-01 -3.83532383e-02  1.12515368e-01  1.36549249e-01
     9.41556506e-03 -3.60295512e-02]
   [ 4.39826511e-02 -1.27117932e-01 -1.51960567e-01  2.18701214e-01
    -7.79521912e-02  2.87037082e-02]
   [ 2.29127835e-02  1.61233008e-01 -2.50525791e-02  1.54295146e-01
     2.05363840e-01 -7.14690760e-02]]

  [[ 2.03666821e-01 -3.32875364e-02  2.06315443e-01 -1.72529936e-01
    -3.67279276e-02 -2.34210774e-01]
   [-2.04774722e-01  6.15440914e-03 -1.11589186e-01 -2.08139792e-01
    -3.20584106e-04 -3.48825872e-01]
   [ 2.26720333e-01  3.15780431e-01 -2.43366491e-02 -8.44868496e-02
     1.37515053e-01 -1.80650488e-01]]

  [[-5.45319282e-02 -8.01347718e-02  1.05467096e-01  6.45983592e-02
    -8.55517536e-02  2.06044570e-01]
   [ 2.45758053e-02 -1.42923132e-01  4.29252982e-02 -2.47849166e-01
    -1.11490808e-01  1.97855860e-01]
   [ 1.42364860e-01  6.33061379e-02 -6.12509251e-02  2.20968481e-02
     1.48380280e-01 -2.75949836e-02]]]


 [[[ 8.89472142e-02 -7.85820261e-02  3.19675393e-02  8.61545186e-03
    -1.26442388e-01  1.75605908e-01]
   [-4.51590866e-02 -2.25704070e-02 -3.62114012e-02  2.07581669e-01
     7.03239068e-02  1.68071136e-01]
   [-1.50291044e-02  5.37387319e-02  1.13122858e-01  1.25652149e-01
     2.73487084e-02  1.88320037e-02]]

  [[ 1.10569648e-01  1.24144889e-01 -1.42065644e-01  5.12935454e-03
     7.46068545e-03  8.70366693e-02]
   [ 2.02772357e-02  8.79558474e-02 -9.05228630e-02  1.25925779e-01
     5.86843826e-02  8.01168010e-02]
   [-8.59576613e-02  5.46138398e-02 -5.44485301e-02 -1.89068504e-02
     1.41132519e-01  1.90229155e-02]]

  [[ 2.05383867e-01 -6.30645677e-02 -4.41803876e-03 -1.99346058e-02
    -1.12109393e-01 -2.70098865e-01]
   [-1.35179445e-01  8.16316083e-02 -8.85850862e-02 -2.49730200e-01
     6.22076727e-03 -1.46248594e-01]
   [-5.94307743e-02  3.05453986e-01 -1.89571545e-01 -1.99070215e-01
     7.65200928e-02 -1.58229128e-01]]

  [[ 1.62883033e-03 -1.29339725e-01  1.03021488e-01 -1.62643030e-01
    -2.95822829e-01 -1.95097961e-02]
   [-1.78691804e-01  1.38747513e-01 -6.49627969e-02 -4.10606042e-02
     1.68013453e-01 -1.06527917e-01]
   [ 1.15858480e-01  2.59104103e-01 -2.69787870e-02  1.40338629e-01
     2.99517244e-01  1.21732235e-01]]

  [[ 6.85380995e-02  2.03215554e-01  5.01800179e-02 -4.89224419e-02
    -2.56255399e-02  8.83185267e-02]
   [-9.04580578e-02  6.52789176e-02  1.64125264e-01  1.06192306e-01
     5.26072830e-02 -2.39120908e-02]
   [-8.18578079e-02 -1.58804849e-01  2.45478973e-01  4.07865494e-02
     5.76738566e-02 -1.89820919e-02]]]


 [[[ 1.03997409e-01  1.70971751e-01  1.31766304e-01 -8.78224894e-02
     1.63190737e-02 -3.59577499e-02]
   [-7.89417550e-02 -7.50334701e-03  4.82466407e-02 -2.57466286e-01
     6.62738159e-02  1.13554791e-01]
   [ 2.57256683e-02 -1.40238822e-01  2.37059563e-01 -1.73605651e-01
     1.10771641e-01  1.56632751e-01]]

  [[ 8.84682387e-02  6.36065304e-02 -1.09560400e-01 -4.68652658e-02
    -2.26923645e-01 -1.23311924e-02]
   [-1.82050280e-02 -1.12917898e-02  4.88188025e-03 -1.88604489e-01
    -4.34978604e-02 -5.28069325e-02]
   [-5.76824248e-02 -6.14790199e-03  1.40957549e-01 -4.29542959e-02
    -6.07603677e-02 -8.92299637e-02]]

  [[ 1.98434561e-01  1.12345502e-01 -1.27172668e-03 -3.55117060e-02
    -7.90714547e-02 -1.67902187e-01]
   [-2.55056351e-01 -1.80525556e-02 -2.39989847e-01  5.90656549e-02
    -1.26891121e-01  1.02617713e-02]
   [ 7.43930787e-02 -8.55813026e-02  1.27028048e-01 -7.55020455e-02
     2.80764312e-01 -2.21821785e-01]]

  [[ 3.23066190e-02  3.09647905e-04 -6.60603195e-02  7.01065734e-02
    -2.83714354e-01  1.54618258e-02]
   [ 2.93154400e-02  9.83496085e-02 -1.75358638e-01 -6.80001229e-02
     1.03837594e-01 -2.08557788e-02]
   [-1.28147721e-01 -6.01588637e-02 -1.85764864e-01 -3.09792962e-02
     8.32822081e-03  6.37106225e-02]]

  [[-3.31104696e-02  1.05162866e-01 -1.70897767e-01 -6.41106293e-02
    -2.19634175e-01  6.29251823e-02]
   [-1.10052913e-01  2.81653795e-02 -5.12695424e-02  1.39794976e-01
    -7.45606944e-02  1.19284475e-02]
   [-1.33997295e-02 -1.42730713e-01  5.33653572e-02  1.29553407e-01
     1.84993908e-01  1.51371852e-01]]]]
baseline/conv2d/bias:0
(6,)
[ 0.12803668  0.03842297 -0.1219702   0.15611073  0.10016803  0.02981334]
baseline/batch_normalization/gamma:0
(6,)
[0.5821313  0.7968464  0.87423706 0.8517898  0.61388916 0.88916725]
baseline/batch_normalization/beta:0
(6,)
[-0.2902927  -0.26132187 -0.47767195 -0.34706852 -0.03965745 -0.20610161]
baseline/dense/kernel:0
(1536, 128)
[[-1.43999681e-01 -5.17177256e-03  1.29702669e-02  1.80066414e-02
   2.15890817e-02 -6.74593225e-02 -2.77227089e-02  1.51201626e-02
   2.21070826e-01 -4.24761735e-02 -9.23010707e-02 -6.74577355e-02
  -6.69723898e-02 -1.90648604e-02 -3.99932340e-02 -1.15736194e-01
   2.38720179e-02 -3.28532875e-01  5.05409501e-02 -5.56727052e-02
  -1.21885305e-03 -5.60221449e-02 -2.28919834e-02  2.25668028e-03
  -3.13498005e-02  8.91259685e-02 -6.16485327e-02  3.06016169e-02
  -1.00916289e-01 -5.90625331e-02  6.57045916e-02  5.46713993e-02
   5.09672165e-02 -2.96876002e-02  1.02192408e-03 -7.24019781e-02
  -5.15889525e-02 -2.44683057e-01 -3.34041938e-02  1.67651493e-02
  -3.50021347e-02  3.28564574e-03 -5.51413782e-02 -4.68868762e-04
   1.08172027e-02 -2.13865206e-01  3.30391005e-02 -9.38279927e-02
  -5.91454655e-02 -2.57927150e-01  4.44855094e-02 -4.27026935e-02
  -2.87421830e-02 -4.01910283e-02 -2.74001639e-02 -7.99141079e-02
  -5.26785962e-02  5.56650944e-02  3.34485956e-02 -3.11876517e-02
  -1.51043698e-01  2.23304346e-01 -5.80414832e-02  4.23368588e-02
   5.43018132e-02  6.97152764e-02 -5.28377593e-02  1.27043366e-01
  -1.98610753e-01 -4.08950485e-02 -3.14301252e-02  4.37071137e-02
   2.58738510e-02 -1.24477282e-01  2.83979118e-01  8.91362354e-02
   2.22972170e-01 -1.69013381e-01  3.56150530e-02  2.72817183e-02
   1.24624871e-01 -1.81941181e-01 -4.51874137e-02 -1.04487571e-03
  -3.47509794e-02  1.35340154e-01  6.51861578e-02  4.18516248e-02
  -5.03188791e-03  4.13933210e-02 -3.49559858e-02  8.88599008e-02
  -5.84293529e-02 -3.63162719e-02 -4.27714474e-02  5.89616410e-03
   2.46913210e-02  1.10938912e-02 -2.72160266e-02  7.54457116e-02
  -2.08922811e-02 -3.68706703e-01  2.72220850e-01  5.12042008e-02
   2.24334057e-02  1.37592703e-01  1.76424161e-02  4.31630341e-03
  -4.52513248e-02  3.30174714e-03 -9.59585235e-02  2.86179595e-02
   4.34613302e-02 -1.70015141e-01 -5.27844913e-02  5.22073060e-02
  -3.15571018e-02  1.37800369e-02  2.44974449e-01  1.02716260e-01
  -1.46048039e-01 -6.39113262e-02  4.66620773e-02  5.21664321e-02
  -1.39501086e-02 -3.54924910e-02  4.53845859e-02 -2.87265897e-01]
 [ 5.21923639e-02 -5.73277771e-02  4.24438417e-02 -2.23397966e-02
  -1.75463799e-02 -8.17061216e-03  3.89201678e-02 -4.86270040e-02
  -4.54559624e-02  3.20496224e-02 -5.65583911e-03  3.81163061e-02
   4.40493040e-02  2.23804335e-03 -4.22384255e-02 -5.73708937e-02
  -4.77929972e-02  5.11327013e-03 -1.90277454e-02  5.64657792e-04
   5.01212887e-02 -2.25008205e-02  1.79329365e-02  3.42195332e-02
   2.82356353e-03 -1.04342978e-02  5.83517887e-02 -4.32792939e-02
  -9.31498632e-02 -4.91796918e-02  1.48019204e-02  9.47197154e-03
  -3.20334807e-02 -7.80013055e-02 -3.01485276e-03 -3.32807489e-02
  -5.67969773e-03 -3.82944122e-02  5.73146269e-02 -6.07657619e-02
  -9.77783501e-02 -6.79905619e-03 -9.02308598e-02  3.91423553e-02
   7.13363150e-03  9.91758257e-02  2.35720128e-02 -8.67813975e-02
  -2.75679640e-02 -3.65261920e-02 -2.64957845e-02 -1.55516833e-01
  -7.23290741e-02 -5.22464924e-02 -1.76746231e-02 -4.46285941e-02
   3.42953354e-02  1.09449662e-02 -5.62759629e-03 -5.98645657e-02
   1.06820159e-01  6.82032853e-03  4.96558771e-02 -3.90506862e-03
  -1.00693395e-02 -5.04165031e-02  3.81008498e-02  3.80491465e-02
  -4.50505577e-02 -3.30305398e-02  2.94284057e-02 -2.65000053e-02
  -6.74565732e-02  1.25294123e-02 -5.18556274e-02 -1.07394449e-01
   2.11569145e-02  4.50268313e-02  3.40607241e-02 -3.65770097e-06
  -6.64132759e-02  3.88840698e-02 -6.62352294e-02  1.74141321e-02
  -5.59595190e-02  1.20395303e-01  8.11867323e-03 -2.56594792e-02
  -4.37636673e-02 -6.54193535e-02 -3.83744352e-02  2.42240708e-02
   3.90825234e-02  2.86648273e-02  4.37253229e-02 -1.38400625e-02
   1.76429432e-02  4.89928275e-02 -3.88805568e-02  3.30094667e-03
  -9.90331825e-03 -7.21443817e-02 -4.67654783e-03 -9.17416736e-02
  -4.70194183e-02  4.98138033e-02 -3.17303762e-02  4.47697826e-02
  -4.89036851e-02 -4.27091271e-02 -6.43240567e-03 -9.12713725e-03
  -5.40628703e-03  2.35217866e-02 -3.74883004e-02  2.59919111e-02
  -4.01392877e-02 -7.46595487e-02  1.30474180e-01  5.72666451e-02
   6.22691773e-02  8.35822001e-02 -8.80080983e-02  3.00074462e-02
  -7.12514818e-02  7.31746107e-03 -2.64960229e-02  7.60336639e-03]
 [-1.97033994e-02  4.62325327e-02  3.10183149e-02 -1.34986555e-02
  -5.36263287e-02  8.26267451e-02 -3.47042382e-02 -5.87996617e-02
  -7.51267076e-02 -9.97185707e-03 -6.83772787e-02  6.34022728e-02
   1.56217188e-01  4.52725291e-02 -5.52270003e-02 -1.17268182e-01
  -3.05559840e-02  9.02389809e-02 -3.89446653e-02 -5.20936958e-02
  -8.08748752e-02  8.87335092e-03 -8.39371327e-03 -7.01362826e-03
  -7.55471438e-02  1.47294225e-02 -5.10112792e-02 -8.28020424e-02
  -5.92546910e-02  2.66128760e-02 -8.00815746e-02 -1.33774746e-02
  -4.11468782e-02 -6.94764927e-02 -5.57573959e-02 -2.27788705e-02
  -2.24025417e-02 -2.56562307e-02 -7.64041692e-02 -4.57225107e-02
  -1.02418564e-01 -4.07708362e-02 -2.50998568e-02  3.45686041e-02
  -7.66398804e-03  1.78900436e-01  4.52902801e-02 -2.38351952e-02
   2.59739961e-02  1.87220111e-01 -1.32504618e-02 -5.87703399e-02
   2.13699937e-02 -3.85561846e-02  8.96983314e-03 -9.93150845e-02
   2.92029530e-02 -1.71146858e-02  2.57669929e-02 -6.73734471e-02
   1.42343074e-01 -1.80148892e-02 -5.39447255e-02 -2.29557920e-02
   3.97398807e-02 -8.38924013e-03 -6.51436001e-02 -7.12793991e-02
   1.35417050e-02 -1.02006294e-01  1.08451908e-02 -1.93743296e-02
  -4.08460982e-02  6.69085756e-02 -1.81865811e-01  4.45257388e-02
  -1.35759950e-01  7.11782873e-02 -1.15664136e-02 -2.58480594e-03
   1.18336417e-01  1.05900101e-01 -4.71503586e-02  8.79295394e-02
  -2.90239621e-02 -2.10544723e-03  1.76290271e-03 -1.47998352e-02
  -9.30234939e-02 -3.86457369e-02 -6.42115623e-02  2.74763983e-02
  -3.24261338e-02 -1.64440821e-03 -8.72306675e-02 -2.40646768e-02
  -3.63173783e-02  1.13467366e-01 -1.58840269e-02  2.57004537e-02
   2.21553165e-02  2.33847909e-02 -1.17485948e-01 -1.38352579e-02
  -6.02514409e-02 -1.16030231e-01  1.67456008e-02  3.08958953e-03
  -4.66131791e-03  1.69195198e-02  1.24600595e-02 -6.33784607e-02
  -1.00106457e-02  1.18374892e-01 -6.94991499e-02  5.46218082e-02
   4.37839329e-02 -7.04055130e-02  7.16234297e-02 -4.87938933e-02
  -3.66468243e-02 -1.16482517e-02 -2.83704046e-02 -6.35696575e-02
  -6.06155731e-02  3.66940126e-02 -1.10428026e-02 -4.03784355e-03]
 [-3.19975466e-01  1.36183366e-01 -1.45956427e-01  3.38479057e-02
  -8.22422728e-02  1.89076383e-02 -2.23417324e-03  5.92133105e-02
   7.49604031e-02 -9.41108819e-03 -5.78361470e-03 -7.71710277e-02
   6.14510067e-02  4.68497723e-02  2.11555175e-02  1.10524260e-01
   1.61105059e-02 -1.28704496e-02 -2.26566996e-02  1.82035714e-02
   8.44979007e-03  1.02153234e-02  6.38671592e-02  4.23952304e-02
   1.02239354e-02  1.03028998e-01  7.04454407e-02 -8.88162758e-03
  -7.86295608e-02  2.24222708e-02 -1.58419684e-02  3.06677371e-02
   5.14390655e-02 -6.01704326e-03 -5.40485755e-02  1.93646532e-02
   7.74511918e-02  8.11867490e-02 -6.57274649e-02 -3.81186903e-02
  -7.27166533e-02  4.06003222e-02 -1.35758249e-02 -2.66399048e-02
  -1.35978386e-02 -5.75209334e-02 -8.68567452e-02 -1.10129230e-01
   2.05907542e-02 -1.31622143e-02 -4.89717871e-02 -1.26046613e-01
  -4.63161943e-03 -3.10966056e-02  4.98463735e-02 -4.09650765e-02
  -3.73295657e-02  1.84558090e-02 -3.56578752e-02 -1.92612018e-02
   1.72200352e-01 -8.37123767e-02  5.73724993e-02  3.81224789e-02
   4.67936806e-02 -3.32450941e-02 -1.51202045e-02  6.51466250e-02
  -1.32698834e-01 -7.27436915e-02  1.33855015e-01  3.91368717e-02
  -6.17387630e-02 -8.75104740e-02 -2.08303910e-02 -9.10360515e-02
   8.68370198e-03  1.82577278e-02  1.25581995e-02  4.50539626e-02
  -8.95075798e-02  7.68897682e-02  1.26562193e-02  3.12243290e-02
   6.17570840e-02 -1.12067558e-01  2.66705304e-02 -8.18404369e-04
   6.32349253e-02  3.11395153e-02 -2.35486142e-02  1.31259695e-01
   4.92992857e-03 -5.44049256e-02  1.11829545e-02 -4.70541939e-02
  -5.13328239e-02 -1.54682443e-01 -1.06258601e-01  1.40633238e-02
  -1.08302720e-02 -1.23758785e-01  2.08861325e-02 -1.24260858e-02
   1.33791724e-02  6.41176626e-02  1.24999858e-01 -5.94169181e-03
   3.17235067e-02 -3.92860323e-02 -1.89845383e-01 -4.44429507e-03
   4.30514067e-02  2.37377007e-02 -4.53778915e-02 -4.01524082e-02
   1.42487539e-02 -1.43140950e-03  6.62462190e-02 -3.90337855e-02
   6.02897198e-04  1.11375034e-01  2.00925618e-02 -1.28708137e-02
   3.60863283e-02  1.78920627e-02  3.86406705e-02 -1.15651293e-02]
 [-7.05288798e-02 -2.26601548e-02 -1.25355989e-01 -4.17163521e-02
  -5.70670469e-03 -6.74555525e-02 -2.20236126e-02 -2.80799791e-02
   1.33432508e-01 -8.01212117e-02  2.18585469e-02 -5.98279899e-03
   7.77786225e-02 -6.42380444e-03 -5.21134101e-02 -9.09094214e-02
  -4.53329235e-02  5.70678301e-02 -9.90841258e-03  1.37644645e-03
  -2.39994787e-02 -4.61108983e-02  3.24860737e-02 -1.73013972e-03
  -8.74118581e-02  4.44468372e-02 -6.54819533e-02  1.06858294e-02
  -5.68031967e-02 -4.15362939e-02 -7.06121102e-02 -6.31654784e-02
  -6.61475118e-04 -1.38541967e-01 -5.43308184e-02 -4.11036015e-02
   6.30768463e-02 -6.21379018e-02  2.87627801e-02  4.21312340e-02
   3.00690681e-02  3.05601470e-02  2.67005283e-02  6.01640856e-03
   2.69299038e-02  7.90070072e-02  5.12153022e-02 -6.62525371e-03
  -9.83201787e-02 -7.67669752e-02 -3.94764207e-02 -2.49944907e-02
  -4.92830873e-02 -6.22768216e-02  3.03965881e-02 -3.15330215e-02
   1.16857830e-02 -6.51409850e-02  6.61873957e-03 -7.58155435e-02
   6.58630580e-02  7.38043860e-02  3.37275602e-02 -6.68100119e-02
  -5.85223623e-02 -1.72813199e-02  4.36323462e-03  1.39075473e-01
  -1.78593755e-01 -2.69232467e-02  7.59230927e-02  9.52225830e-03
  -3.67923453e-02 -1.39879331e-01  7.21972957e-02 -1.01610370e-01
   1.37098074e-01 -8.26874282e-03  3.10324524e-02 -3.63066271e-02
  -1.44311950e-01 -2.66022701e-02 -4.69376370e-02  8.15968364e-02
   1.04001714e-02  1.60071820e-01 -2.70784032e-02 -4.85799871e-02
  -2.55525075e-02 -5.46202585e-02  3.18034850e-02  2.34681200e-02
  -1.60586499e-02  3.05951796e-02 -1.16476165e-02 -9.22556743e-02
  -2.04647984e-02  2.42772587e-02 -4.72162440e-02  2.15521753e-02
  -3.82796526e-02 -2.57633507e-01  2.00348273e-02 -4.82342467e-02
  -3.36769596e-02  5.37248999e-02  2.18804330e-02 -1.06551975e-01
   1.98542532e-02  8.35327245e-03 -5.09838574e-02 -7.79080540e-02
   2.23652739e-02  8.19615051e-02 -3.50520313e-02  8.09737146e-02
  -1.27334371e-02 -7.62270615e-02  1.42468959e-01  2.21262351e-02
   4.12429050e-02 -6.60932157e-03 -4.13805507e-02 -4.07580882e-02
   7.96911400e-03 -3.05845104e-02 -3.03468704e-02 -6.15140200e-02]
 [-5.55444658e-02  6.55923560e-02 -4.20260057e-02 -9.62921977e-03
   4.07321230e-02  7.26600587e-02  1.72495318e-03 -6.23598881e-02
   1.03593998e-01  6.45978004e-02 -2.70339828e-02 -1.19687811e-01
  -1.05968468e-01  4.11518440e-02  1.42838564e-02  4.26668786e-02
   2.79809646e-02 -6.80574551e-02 -7.81276897e-02 -5.12425825e-02
   8.48303828e-03 -2.23837979e-02  5.95326684e-02 -2.97109727e-02
   3.51597182e-02  6.83351010e-02 -4.80521359e-02 -3.89043391e-02
   5.35527021e-02 -2.68485071e-03  2.15098746e-02 -7.42052123e-02
  -2.08339710e-02  3.80168885e-01 -5.29944561e-02  1.07445396e-01
  -1.84561331e-02  1.05472347e-02  1.24128191e-02 -5.05604148e-02
  -1.32757872e-02  2.46199481e-02  2.82432958e-02  2.31280532e-02
  -1.86422318e-02 -5.02188429e-02 -1.42142810e-02  2.05040306e-01
  -1.58056896e-02 -8.40566456e-02  5.04267029e-02 -4.54964787e-02
   5.17446548e-02 -3.24841142e-02 -8.17536265e-02 -4.25575487e-02
   3.31586190e-02  9.62927938e-03  8.42159055e-03 -6.68803928e-03
  -7.65947327e-02 -1.07645364e-02 -2.04629637e-02  5.57722291e-03
  -4.01138961e-02  2.62255687e-02  2.35017063e-03 -8.76247808e-02
  -1.25254363e-01  2.92646419e-02  2.28768438e-02 -2.59925872e-02
  -3.78318317e-02  1.58823222e-01 -4.17803898e-02 -7.01426491e-02
  -1.35594726e-01  1.18442290e-01  5.30814752e-02 -4.22066525e-02
  -1.29225194e-01  2.44228952e-02 -2.32259575e-02 -3.78819630e-02
   5.99980429e-02 -1.57431081e-01  1.48788001e-03 -8.48916844e-02
   2.37502679e-02 -1.16275921e-02  1.47281531e-02  5.75500764e-02
  -1.22922361e-02  5.10585792e-02  1.14813671e-02  2.93970648e-02
  -1.54016847e-02 -4.64800559e-02 -1.54552953e-02 -8.13854411e-02
  -3.05797979e-02 -1.66217893e-01 -8.19431767e-02  1.09152533e-01
  -5.31651042e-02 -2.75726747e-02  5.85869141e-02 -3.49295773e-02
   9.34486464e-03  1.17321638e-03 -1.45039141e-01  1.24157267e-02
  -2.85994969e-02  1.63822100e-01  4.64010052e-02  6.64981082e-02
   4.81581651e-02 -3.52235921e-02 -7.20112249e-02 -3.74875031e-02
   1.51603118e-01 -9.59211290e-02  3.09936721e-02  5.17173335e-02
   3.10760486e-04 -1.20300790e-02 -5.32487109e-02 -3.03682573e-02]
 [-1.32708549e-01 -9.30454582e-02 -8.44368339e-02  3.34869139e-02
  -9.70089529e-03 -1.89567521e-01 -1.19920308e-02  1.73008684e-02
   1.40304774e-01  3.74892466e-02 -6.37526438e-02 -5.83523065e-02
  -6.09327629e-02  4.61136848e-02 -2.09737960e-02  2.79312618e-02
  -6.97510093e-02 -2.08116308e-01 -9.00543332e-02 -3.46002430e-02
   5.09481272e-03 -3.97338793e-02  9.28088836e-03  1.39468117e-04
  -1.77849084e-02  1.39409006e-02  4.93405573e-02 -5.05793802e-02
  -2.12675612e-02 -4.23400812e-02 -3.35815512e-02 -6.31179288e-02
  -4.15324830e-02 -2.23246608e-02  1.02867256e-03  8.40674527e-03
  -8.16848427e-02 -9.95275378e-02  2.22650953e-02  4.02447246e-02
  -1.52219022e-02  1.90687273e-02  5.84930070e-02  2.50609405e-02
  -3.64085175e-02 -1.47597596e-01 -6.35859147e-02 -1.64307714e-01
   1.99539028e-02 -1.80494875e-01 -3.35589759e-02 -3.91373970e-02
  -8.53775963e-02 -9.92517453e-03 -6.89249346e-03 -3.35289091e-02
   3.38436483e-04 -6.10550828e-02 -2.32362151e-02 -4.15905304e-02
  -1.74935386e-01  7.72351921e-02 -4.35593799e-02  2.07192563e-02
   2.46377252e-02 -4.20144834e-02  5.77594899e-03  9.75448340e-02
  -1.55855864e-01 -7.77679170e-03 -6.63354397e-02  1.49877537e-02
  -5.31107932e-03 -8.14522356e-02  8.56399760e-02 -1.50192408e-02
   1.66331023e-01 -3.84700410e-02 -1.27216028e-02 -1.56508125e-02
   4.31905426e-02 -1.49722472e-01  9.93736647e-03  3.72047648e-02
   7.89133161e-02  2.45522887e-01  3.79687920e-02  6.61011413e-03
   2.00109649e-03 -6.41652867e-02 -5.88472351e-04  5.34698628e-02
  -2.08131745e-02 -2.51112022e-02 -4.24572267e-03 -4.76207063e-02
  -9.42945480e-04 -1.05594946e-02  1.17285540e-02 -8.81398004e-03
   4.09321859e-02 -2.80353874e-01  1.18137181e-01  2.13555340e-02
  -4.10567783e-02  3.49963307e-02 -2.50482727e-02 -7.28620142e-02
  -4.18651439e-02 -1.71297956e-02 -8.13825205e-02 -3.98009680e-02
   6.55710772e-02  4.92470525e-03  4.51352261e-02  5.76437563e-02
  -6.92547997e-03 -9.96939000e-03  1.51580796e-01  1.06503246e-02
  -2.43974365e-02 -4.31944914e-02 -4.40885872e-02 -9.03207436e-03
  -7.65001252e-02 -4.48680781e-02  2.36166568e-04 -1.40964210e-01]
 [-1.51454985e-01 -7.29554817e-02 -2.39871778e-02 -3.99150588e-02
   2.81897541e-02 -1.38327749e-02  1.06526734e-02  3.23716104e-02
   6.01448677e-02 -6.83568344e-02 -1.05232492e-01 -1.17992684e-01
  -3.38185132e-02 -4.03351896e-03  4.48594540e-02  8.50420818e-02
  -6.80294186e-02  5.63241448e-03 -2.45063584e-02  2.70814877e-02
  -6.43000379e-02 -1.96220400e-03  1.96223557e-02 -5.81632704e-02
  -4.77722958e-02 -3.54857631e-02  2.90855132e-02  3.03040762e-02
  -3.40066664e-02 -9.17236321e-03 -9.24753472e-02  3.56824249e-02
   2.22971682e-02  3.09551060e-02 -1.61085818e-02  1.78729165e-02
  -6.33913428e-02 -2.12139115e-01  5.02612516e-02 -5.13838157e-02
   2.31931340e-02 -6.27754554e-02 -6.50426075e-02 -4.04539444e-02
   4.81210090e-02  2.45750602e-02 -4.05124798e-02 -1.17883250e-01
  -1.42904386e-01 -2.00365469e-01 -2.25490518e-02  4.75305952e-02
  -5.43826036e-02 -3.27985710e-03  2.90068612e-02  2.05648225e-02
  -5.03570586e-02  7.41991680e-03  2.34117396e-02 -6.49594963e-02
  -4.07345174e-03 -6.10871874e-02 -6.75873905e-02 -2.02588420e-02
  -1.66614596e-02 -4.97671776e-02 -4.57889475e-02  2.83484217e-02
  -5.49860224e-02 -6.12914972e-02  6.16497658e-02 -2.70316508e-02
   3.05383019e-02 -1.11685753e-01  1.35211833e-03 -8.90330374e-02
  -7.24765379e-03  4.65449579e-02  2.32824683e-02  2.41179988e-02
  -5.41461669e-02 -4.79017831e-02  1.62424017e-02  2.72435118e-02
  -2.56911013e-03  2.55321134e-02  3.10076885e-02  3.63161527e-02
  -8.22664052e-02  4.60687205e-02 -7.12835118e-02 -5.02272695e-03
   2.61527169e-02 -3.91959958e-02  1.66673437e-02 -6.61168098e-02
   4.07593772e-02 -2.12843176e-02  6.45307824e-02  5.62002324e-02
   4.18498553e-03 -9.47649553e-02  2.06289943e-02 -9.73660946e-02
   3.17294709e-02  8.72526541e-02  1.49187408e-02 -1.05759501e-01
  -5.66339158e-02  1.56305786e-02  2.52926946e-02 -9.12209600e-03
   2.32366472e-03  7.03399852e-02 -2.55359653e-02 -6.20718487e-02
   3.49386537e-04 -9.30245072e-02  1.42086804e-01  8.09302926e-03
   5.95108652e-03 -1.36699036e-01 -3.08206659e-02 -2.89479420e-02
  -2.39729974e-02  2.01417017e-03  3.58928740e-02  9.35347471e-03]
 [-7.94508606e-02 -3.64718139e-02  6.57875985e-02 -1.27706444e-02
   3.82325519e-03  1.06862970e-01  3.71181183e-02 -3.50565910e-02
  -5.28354160e-02 -5.07850498e-02 -4.31005843e-02  1.13182375e-02
  -3.13158691e-01 -5.08896820e-02  4.79543358e-02  1.16923349e-02
  -1.18702082e-02 -7.19228387e-02 -7.73123726e-02 -1.32938642e-02
   4.38209958e-02 -5.00951298e-02  1.79332010e-02 -5.83081916e-02
   3.44982855e-02  2.52492893e-02 -5.38423657e-02 -6.00497844e-03
   1.11982249e-01  5.04076108e-03  2.34955586e-02 -7.93077722e-02
  -4.06462215e-02 -3.87864118e-03 -4.83657140e-03 -4.00197320e-02
   4.45727073e-02 -1.31495789e-01 -1.55126015e-02 -6.36949763e-02
   3.62741505e-03  1.37233585e-02  3.19616199e-02  2.94259209e-02
  -4.28279974e-02 -9.31348205e-02  3.41438465e-02  1.82562873e-01
  -5.20747080e-02 -4.20196131e-02 -2.65780669e-02  5.65233752e-02
   3.16149592e-02  1.11715496e-02  6.85292622e-03 -8.55653211e-02
  -5.76927215e-02  3.40546481e-02  2.85617933e-02  2.20173616e-02
  -9.83366743e-02  4.26640771e-02  4.62598726e-02 -5.99497482e-02
   2.63196565e-02  1.23574762e-02 -4.35690507e-02  1.90749280e-02
   7.38029182e-02  1.36512160e-01  8.00700635e-02 -6.47209808e-02
  -5.70050217e-02  7.52060488e-02  3.47425677e-02 -1.57563001e-01
  -2.66121596e-01 -2.46880576e-02 -1.29034938e-02  3.36947627e-02
   1.88820556e-01  4.80879797e-03 -3.93395536e-02 -7.39998184e-03
  -3.25762667e-02 -1.36227638e-01  7.07635749e-03 -4.45688814e-02
  -3.85462567e-02  6.39070757e-03 -7.75222387e-03  3.64586562e-02
   2.78712772e-02 -1.10435914e-02  5.07986322e-02 -1.87839102e-02
  -4.09692898e-02  8.27828422e-03 -5.32976585e-03  1.25242010e-01
  -5.32087404e-03  1.56771451e-01  3.26997787e-03 -6.61655515e-02
  -3.15503255e-02 -4.90519963e-02  4.82241856e-03  1.77394394e-02
   3.75435464e-02 -1.94768924e-02  3.14504765e-02  1.96304042e-02
  -2.68493835e-02  3.93952755e-03  9.99087691e-02 -1.08350173e-01
  -1.01592071e-01  5.30111119e-02 -1.67556316e-01 -2.84574870e-02
   4.17008698e-02 -2.26587698e-01 -2.66627185e-02 -6.55699968e-02
   2.49021035e-02  6.19353205e-02  8.82333610e-03  9.55522135e-02]
 [-2.92069614e-01 -6.00171983e-02 -2.10172400e-01 -4.35374193e-02
  -1.87088456e-02 -1.03586890e-01 -8.79163947e-03 -6.43251836e-02
   8.67542326e-02 -1.88936219e-02  2.57086977e-02 -6.51819259e-02
  -6.28819615e-02  3.90848815e-02  4.60997708e-02  2.39345748e-02
   3.73134688e-02  5.73981740e-03 -3.90869714e-02 -5.45190610e-02
  -5.31377606e-02 -2.69610025e-02  4.01660912e-02 -1.20551102e-02
  -3.14343013e-02  7.90800899e-02 -6.99762851e-02 -3.56193166e-03
   8.94350559e-02 -7.35078305e-02 -4.84065190e-02  1.38630706e-03
  -3.15473825e-02 -5.65711185e-02 -5.22117540e-02  5.74470870e-03
  -8.76674056e-02  9.86580029e-02 -4.24459198e-04  3.18381861e-02
   2.55507585e-02 -6.59519956e-02 -6.96739554e-02 -5.53102866e-02
   3.32437791e-02  3.16458531e-02  5.49238659e-02  2.80480664e-02
  -7.07431417e-03  2.34890310e-03  5.06114438e-02 -7.24628270e-02
  -9.20791551e-02  2.97392812e-02 -6.52836934e-02 -4.91106976e-03
   3.79521102e-02  5.00236116e-02 -7.12863281e-02 -4.23275270e-02
   7.56768510e-02  1.28425546e-02 -6.04783818e-02 -4.40071002e-02
   4.83688712e-02  1.10884793e-02 -8.23775306e-03  4.34409790e-02
  -1.25860021e-01  6.22471087e-02  1.18629754e-01  3.17009762e-02
  -1.02543943e-02  4.44033109e-02 -9.16840956e-02  9.30406451e-02
  -3.51309553e-02 -1.15018651e-01  8.08875635e-03  1.08966427e-02
  -2.42001005e-02  7.68941194e-02 -4.22389694e-02 -3.93061107e-03
  -1.04189627e-01 -1.60034314e-01  3.33256908e-02  4.45793383e-02
  -1.14376731e-02 -1.20158056e-02  8.96828901e-03  6.29228801e-02
  -5.44046685e-02  4.39864136e-02 -3.63180749e-02  3.53525057e-02
  -2.03809771e-03  3.70839499e-02 -3.42707671e-02  1.76144484e-02
   3.17092687e-02 -6.47796690e-03  6.53078482e-02 -2.40903487e-03
  -4.89560589e-02  3.64654474e-02  3.56297009e-02 -7.76300803e-02
  -5.51434942e-02  5.17527619e-03 -2.86199711e-02 -3.73999700e-02
   2.65293512e-02 -1.49975970e-01  6.06735200e-02 -8.67909417e-02
   1.00117803e-01 -5.47742322e-02  5.01346365e-02  4.61960100e-02
  -2.05631973e-03  3.42264101e-02 -3.20902169e-02 -1.49349347e-02
  -3.14939767e-02 -5.04857078e-02 -8.40201508e-03 -1.34958297e-01]
 [-1.09094582e-01 -3.79285365e-02 -5.91206290e-02 -6.72663525e-02
   3.53871807e-02 -1.23388439e-01  2.02497654e-02 -1.08892350e-02
   5.88787422e-02 -4.56412956e-02  4.65885326e-02 -1.55737191e-01
  -1.08965505e-02 -5.53593375e-02 -5.97413778e-02 -5.81602156e-02
  -4.21892554e-02 -6.61235163e-03 -3.05471066e-02 -4.67799492e-02
   2.09246036e-02  1.09843351e-02  4.05023172e-02 -1.35918316e-02
   1.07696736e-02  1.63154509e-02  2.36646254e-02  2.07987316e-02
  -3.05295433e-03  1.05231656e-02  1.63516495e-02 -4.51711044e-02
   2.82295397e-03 -1.00614391e-01  4.62091304e-02 -9.71689671e-02
   1.79547444e-02 -7.51623884e-02 -1.51191987e-02  5.56044355e-02
  -3.01173539e-03 -4.90506552e-03 -4.40306291e-02 -4.56321649e-02
   4.15909179e-02  2.91389395e-02  4.47315760e-02 -7.50208274e-02
  -9.00178924e-02 -6.01860546e-02 -5.57938218e-02 -3.88412885e-02
  -7.20320046e-02  1.13144675e-02 -6.70357719e-02 -3.82242277e-02
  -3.59979570e-02 -6.46724775e-02 -3.13575491e-02  9.56600159e-03
   1.46248508e-02  4.76319343e-02  7.54500553e-02 -1.75291896e-02
  -2.39263829e-02 -7.65960664e-02 -3.23442481e-02  1.48264304e-01
  -1.81026310e-01 -4.22134362e-02  7.82773048e-02 -5.89692369e-02
  -4.06893939e-02 -6.19260259e-02 -2.52430364e-02 -2.76792236e-02
   8.31609368e-02  2.88736112e-02 -4.52777408e-02 -1.95681211e-02
  -3.39166708e-02  2.05642004e-02  2.44121347e-02  2.59589609e-02
  -6.73235729e-02  1.20998688e-01  6.45611510e-02  2.62109730e-02
  -8.12965855e-02 -8.57733469e-03 -3.62449028e-02  7.55743980e-02
  -4.27835695e-02 -5.17063215e-02  6.06790232e-03 -8.03358406e-02
   5.49538201e-03 -6.71532080e-02  1.93700532e-03  5.30095622e-02
  -5.23318499e-02 -1.30964503e-01  2.85149496e-02 -5.22111394e-02
  -6.56245425e-02 -9.72709153e-03 -3.49573456e-02 -1.31685175e-02
   2.04191878e-02 -6.01593442e-02 -2.04968359e-02 -3.48968804e-02
  -9.26879272e-02 -1.68334052e-03 -2.69646216e-02  8.53668824e-02
  -6.14060648e-02  1.79438051e-02  7.12603703e-02 -1.06801860e-01
   5.48157236e-03 -5.54963388e-02  9.08161048e-03 -4.06451896e-02
   7.91717041e-03 -4.91281003e-02  3.87340933e-02 -3.27965468e-02]
 [-8.64723101e-02 -1.74675155e-02  1.25424117e-01  4.55263816e-02
   2.41742656e-02  8.35133418e-02  5.89015596e-02  1.55329425e-02
  -8.89814179e-03 -1.43059820e-03 -4.10383232e-02  1.90068260e-02
  -2.45439813e-01 -3.46523859e-02 -5.43653853e-02  2.40563899e-02
   5.50440289e-02 -1.78611185e-02 -7.80496793e-03  3.48019376e-02
   6.47170655e-03 -3.58948745e-02  4.04154025e-02 -2.38848031e-02
   3.90148610e-02  1.46204159e-02 -6.23207279e-02 -9.17767454e-03
   3.96812987e-03 -2.96854898e-02 -6.79569840e-02 -4.79961280e-03
  -3.52767259e-02  3.71851102e-02 -5.86231239e-03 -1.53746514e-03
  -2.06392571e-01  8.29831883e-02 -1.38666540e-01 -5.10091260e-02
  -2.03558020e-02 -2.45633395e-03  1.90449357e-02 -4.19217236e-02
   4.95634368e-03 -1.21744603e-01 -5.48865348e-02  7.43049309e-02
   1.02222383e-01  6.40911832e-02 -6.88166693e-02 -1.07793473e-01
  -1.16261970e-02  3.45490058e-03 -3.53388339e-02 -3.29416692e-02
  -2.83387061e-02  3.83769758e-02  4.62774523e-02 -3.79846245e-02
  -1.75823987e-01  5.62701225e-02 -1.42622933e-01  1.05031645e-02
  -5.55905625e-02  2.36801859e-02  3.92032228e-03 -1.64185926e-01
   1.48133382e-01  9.43333805e-02 -1.09654777e-02  1.21502699e-02
   1.76512673e-02  2.86064502e-02  9.43771452e-02  7.25100338e-02
  -4.85648140e-02 -1.24819107e-01 -1.74860433e-02 -4.84464988e-02
   4.63922247e-02 -2.81095982e-01  3.22805382e-02 -1.24441817e-01
  -1.62046757e-02 -2.00428262e-01 -4.58437279e-02 -1.36634242e-02
   7.08370563e-03  1.06427865e-02 -2.52058003e-02 -3.32658831e-03
  -7.00528696e-02  1.54954512e-02 -6.85649663e-02 -8.16823840e-02
   4.08289358e-02  1.22120358e-01 -4.98010777e-02  1.50980223e-02
  -4.37523685e-02  1.04137011e-01  7.55051300e-02  2.35083047e-02
  -1.88606661e-02 -1.03897847e-01  8.69856998e-02 -1.39486730e-01
   1.60915181e-02  3.74922119e-02  2.73058284e-02  3.41731794e-02
   1.57691147e-02 -1.09441705e-01  2.26665288e-01  1.59749221e-02
   3.42929512e-02 -4.68555130e-02 -2.00863421e-01  9.69609711e-03
   4.83353622e-02  8.92900396e-03  1.60866529e-02  5.99758178e-02
  -3.07505094e-02 -3.85639109e-02 -4.94575836e-02  1.06874444e-02]
 [-1.32390961e-01 -1.02972806e-01  6.70371577e-03  1.51139786e-02
   4.06506695e-02 -1.13007538e-02  1.52662853e-02 -5.57270385e-02
   1.17621280e-01 -3.47211547e-02 -8.47835764e-02 -5.00554256e-02
  -4.50268947e-02 -2.70829964e-02  4.89615537e-02 -5.43079004e-02
  -2.67264917e-02 -1.21445827e-01 -5.45070395e-02  1.19440607e-03
  -3.75054255e-02  6.08108044e-02  3.32283340e-02  3.39721963e-02
  -3.35907899e-02  3.05286106e-02  3.29829529e-02 -5.27983438e-03
  -9.86466333e-02 -3.53307440e-03 -5.72596937e-02 -2.82730367e-02
  -1.71625670e-02 -5.71999736e-02 -2.41081007e-02  2.01226827e-02
   6.51405845e-03 -1.13974988e-01  3.06854565e-02 -4.40610722e-02
  -7.37366006e-02 -3.13954987e-02 -1.32896118e-02  1.83476768e-02
  -5.57548786e-03 -1.50111005e-01  2.20763125e-02 -1.17268689e-01
  -7.20705464e-02 -1.55760452e-01  1.80879720e-02 -1.79328341e-02
  -1.45774288e-02 -5.59288040e-02 -3.85350920e-02 -8.40973258e-02
  -4.93483841e-02  2.80084386e-02 -5.70653901e-02 -5.59808426e-02
  -1.13826759e-01  5.03338352e-02  6.28596172e-02  2.67402027e-02
   1.24738365e-02 -2.68715397e-02 -4.99730073e-02  8.24870318e-02
  -1.20297827e-01 -7.75227174e-02 -5.40654846e-02  1.03181144e-02
   4.57586609e-02 -5.70814051e-02  9.18278918e-02  1.06617317e-01
   1.79331049e-01 -1.47849619e-01 -4.18854021e-02  6.04634322e-02
   4.46183048e-02 -1.59948379e-01 -6.74352124e-02 -1.18569611e-03
  -4.44309004e-02  1.71264887e-01  6.14995845e-02  4.18377109e-02
  -5.74494973e-02 -5.73478714e-02 -5.58021478e-02  1.19007438e-01
   4.94312309e-02  4.58191242e-03  2.28767917e-02  1.38341263e-02
   1.48876011e-02 -8.20740238e-02 -2.24817805e-02 -2.59769652e-02
   1.05422279e-02 -3.33918422e-01  3.43906917e-02 -6.68262169e-02
   4.02862169e-02  3.52977626e-02  5.97094046e-03  9.27440077e-03
   3.64411324e-02  2.42867339e-02 -1.03160273e-02 -9.75452457e-03
   2.50271033e-03 -3.38516571e-02  1.24418810e-02  4.14177328e-02
  -5.09857498e-02  5.59895597e-02  3.28720249e-02  2.03098934e-02
  -3.92067432e-02 -6.48101047e-02 -1.04297660e-02 -4.46266048e-02
   4.12728600e-02 -2.67133005e-02 -9.61321127e-03 -8.68889689e-02]
 [-4.61214967e-02 -1.43533461e-02 -1.60015486e-02 -6.52050693e-03
   3.55437584e-02 -2.93666162e-02 -3.27318162e-02  4.06113043e-02
   5.19939102e-02  4.06261496e-02 -2.12670714e-02  3.40272710e-02
  -7.92144537e-02  6.37618732e-03  1.35200070e-02  3.78793292e-02
  -8.45772699e-02  6.03332780e-02 -1.72871836e-02  1.87124815e-02
  -1.12571254e-01 -4.02647853e-02 -4.86810021e-02  6.23773113e-02
  -7.06854612e-02 -4.65770923e-02  8.71258136e-03  5.55241480e-03
  -6.11844705e-03  2.69353446e-02 -8.21939670e-03  6.68116435e-02
  -2.87219584e-02 -3.52781937e-02  7.99235236e-03 -1.55674769e-02
  -8.37331172e-03 -1.30741552e-01  3.45257632e-02  3.02649662e-02
  -2.05025729e-02 -2.15523578e-02 -5.87542914e-02 -1.51282465e-02
   2.03975979e-02  8.15009885e-03  2.71265814e-03 -1.03855558e-01
  -5.24428897e-02 -4.39519733e-02 -5.90739399e-02 -5.89608178e-02
   1.37565713e-02  1.03803426e-02 -5.78079335e-02 -3.23748626e-02
   5.38570769e-02  2.26312820e-02  1.99295525e-02 -3.14273648e-02
   7.33610913e-02  4.14165370e-02  5.70982648e-03  3.22978757e-02
   2.09719185e-02 -2.49135159e-02 -1.44128064e-02  4.06884365e-02
  -4.44655158e-02 -6.06614724e-02  1.62542760e-01  3.50637883e-02
   3.90655436e-02  2.34585092e-03 -3.04731987e-02 -2.45744381e-02
   2.46328134e-02 -1.16563709e-02 -1.12173008e-03 -2.65100207e-02
  -6.07936978e-02  1.50849288e-02 -1.01805702e-02  8.03420842e-02
   5.62681854e-02  2.79954653e-02 -5.31503484e-02 -5.46268187e-02
   6.59108348e-03  3.98888513e-02 -1.14411842e-02  3.86032723e-02
  -3.20065916e-02  3.61846499e-02  6.33177068e-03  8.00473802e-03
   2.28820872e-02 -1.99520104e-02 -4.66419430e-03  2.43562404e-02
   3.70564684e-02 -7.22515434e-02  1.75338350e-02 -3.19798365e-02
   6.85627805e-04  7.54070356e-02 -5.05690761e-02 -1.19397983e-01
  -4.01297361e-02  4.57053557e-02 -3.51854526e-02  8.25965125e-03
   2.81162448e-02  8.75914097e-02 -1.42260909e-03 -2.63908766e-02
  -1.60251390e-02 -3.62926312e-02  7.57700428e-02  7.01007918e-02
   1.12190112e-01 -3.16797793e-02  1.54227614e-02 -1.04586203e-02
  -5.48533946e-02  2.45640613e-02 -5.97035997e-02 -5.97708486e-03]
 [ 4.08091843e-02 -3.06002963e-02  1.09035261e-01 -9.44495108e-03
   5.24114706e-02  9.55703482e-02  5.46969995e-02  1.80716999e-02
  -2.37127692e-01  1.83893353e-04 -6.18348680e-02  1.02248192e-01
  -1.73868760e-01 -1.78273171e-02 -6.26617521e-02 -2.56394446e-02
  -1.11234337e-02  1.13208957e-01 -5.53116314e-02  1.26527743e-02
  -4.17615250e-02  6.09492250e-02  4.87751737e-02 -3.60656506e-03
  -4.20081476e-03  4.75933887e-02  1.78576224e-02  4.61259075e-02
   7.41733462e-02 -6.84632435e-02  3.28477025e-02 -8.51834044e-02
   2.61238478e-02  2.72404589e-02 -5.88014983e-02 -8.13610181e-02
   2.77166199e-02 -5.30229583e-02 -3.41922045e-02 -2.82547940e-02
  -7.64363119e-03 -6.57764971e-02  9.91535559e-03  4.79671918e-03
  -9.50317923e-03 -2.78468952e-02 -4.21604924e-02  5.56714088e-02
   6.07910231e-02 -1.41832987e-02  1.63124688e-02  5.14984913e-02
  -3.48581672e-02 -6.30681291e-02  1.07872253e-02 -3.13179232e-02
   1.48140928e-02  8.02162364e-02 -4.09846418e-02  1.86422095e-03
  -1.51745500e-02 -1.05171405e-01  3.02628055e-02 -3.40263173e-02
  -2.49980073e-02 -7.15899840e-02  5.54131195e-02 -1.83749318e-01
   1.14626009e-02 -4.97764684e-02 -6.67137355e-02  1.32102733e-02
   4.46652696e-02  2.07191169e-01  3.41929272e-02 -2.46068731e-01
  -1.29773334e-01  5.59567958e-02 -1.25112385e-02 -4.58929427e-02
   8.86258408e-02 -1.74799576e-01 -4.06251587e-02 -8.07335507e-03
   1.36151640e-02 -2.20331065e-02  8.78656376e-03 -5.12911826e-02
  -3.83681655e-02 -5.84150515e-02 -2.86456496e-02 -3.89525527e-03
   2.70128194e-02  1.09171076e-02  1.80972964e-02 -9.12369136e-03
   1.47493044e-02 -4.81989682e-02 -1.05831720e-01  7.19301999e-02
  -4.61552665e-02  1.23615980e-01  4.86486517e-02 -1.37073159e-01
   2.83501167e-02 -6.32339530e-03  4.81104702e-02  1.19039722e-01
  -5.13028763e-02 -2.44268595e-04 -4.41222191e-02  1.27951831e-01
   4.13312726e-02  4.15030941e-02  3.09315557e-03  1.12242876e-02
  -9.32384953e-02 -8.57380927e-02 -1.75390184e-01 -3.68583016e-02
  -1.48504712e-02 -7.44314864e-02  4.86676469e-02  1.66159458e-02
   6.17466960e-03  3.30623910e-02 -2.45180745e-02  9.58067253e-02]
 [ 1.73040703e-02  5.34233288e-04 -2.52617784e-02  5.32408990e-02
  -4.57145013e-02 -8.94262567e-02  7.58363232e-02 -3.15142982e-02
   6.84655905e-02 -3.30977701e-02 -6.22129627e-02 -3.12076658e-02
  -1.03750713e-01  5.86693361e-02  3.55163813e-02 -1.17097072e-01
  -4.08694940e-03  5.82383499e-02  1.27417371e-01 -6.84276149e-02
  -7.11159557e-02  1.19292578e-02  7.40011707e-02  4.76035438e-02
  -5.05011380e-02  1.27289727e-01 -3.92077351e-03 -5.27814366e-02
   1.10339671e-01 -8.98560733e-02 -3.86603512e-02 -1.48428371e-02
  -7.41862953e-02 -1.57547399e-01 -1.27096390e-02 -7.09624290e-02
   2.58702543e-02 -1.27177149e-01 -1.09704308e-01  6.32287040e-02
  -6.31873384e-02 -5.27969934e-03  5.26061319e-02 -3.76755223e-02
  -3.00235059e-02  1.37486994e-01 -1.92655288e-02 -9.37170759e-02
  -9.43412259e-02 -9.72397849e-02 -4.02809633e-03  1.14918694e-01
  -8.27886164e-02  4.55307513e-02 -2.39517689e-02 -3.77869420e-02
   3.67708155e-03  6.54015541e-02  7.09523540e-03 -2.05992833e-02
   5.70110306e-02  1.74500421e-01 -1.27278894e-01  2.27761474e-02
  -2.27937046e-02 -5.49193323e-02  2.20246837e-02 -2.47355197e-02
  -1.07069112e-01  1.61293820e-01 -5.44851355e-04  4.02990244e-02
   5.78874126e-02 -1.53766543e-01 -1.02928851e-03  6.77581280e-02
   4.70679849e-02 -5.98679185e-02  4.51557040e-02 -3.62759782e-03
   4.74953428e-02 -2.04150681e-03 -1.73005518e-02  7.17896000e-02
   1.29019348e-02 -7.03108683e-02 -6.44721538e-02  5.70568368e-02
  -2.41218340e-02  3.81837646e-03 -6.72603622e-02  7.53739625e-02
   9.14400350e-03  3.16821449e-02 -1.86843555e-02 -2.26615369e-02
   3.88792204e-03  6.48410097e-02 -8.71108621e-02  4.62021269e-02
   1.73772722e-02  1.18666217e-01  4.43357378e-02 -8.16229731e-02
  -4.11900040e-03  7.61077693e-03  3.01544238e-02 -1.50463462e-01
   3.76548544e-02 -3.92097543e-04  6.09016158e-02 -3.93628106e-02
  -3.87750939e-02 -6.16610684e-02  1.09046347e-01 -1.64890811e-02
  -4.64749560e-02  1.03395907e-02  4.76072580e-02 -3.07159126e-02
  -1.39148356e-02  7.58073106e-02  2.94762719e-02 -6.06222413e-02
   3.69857810e-02  3.04988562e-03  2.76946649e-02 -6.01668283e-02]
 [-1.01589054e-01 -8.37388039e-02  1.29481778e-02  1.09210052e-02
  -4.77858782e-02 -1.44669324e-01 -7.02500790e-02 -1.15099717e-02
   8.76948684e-02 -2.11243294e-02  2.09409632e-02 -1.61026403e-01
   1.62929966e-04 -5.18440120e-02  1.31694721e-02  2.38166861e-02
   2.50918437e-02  1.28991390e-02  1.93415191e-02 -3.43281776e-02
   1.76456403e-02 -3.16661783e-02 -4.68579940e-02  1.21236015e-02
  -4.63106185e-02 -5.69736548e-02 -5.63656278e-02 -4.36539426e-02
  -7.50158681e-03  2.72633266e-02 -6.52339384e-02  2.87814438e-02
   2.64916420e-02 -5.17048948e-02  9.86194704e-03  2.26921309e-02
   9.80009511e-03 -1.12934612e-01  8.33262429e-02  3.11592892e-02
  -6.57907501e-03  2.20039487e-02 -4.66585346e-02 -3.22140306e-02
  -1.44575676e-02  6.07219562e-02  9.66197625e-03 -1.36730656e-01
  -5.70185818e-02 -3.00978217e-02 -1.31990919e-02  3.44920531e-02
  -4.30714004e-02 -3.59886289e-02 -4.17389236e-02  2.32070275e-02
  -2.50450112e-02  1.75631065e-02 -7.62137920e-02  4.17434350e-02
   6.50871620e-02  3.11783329e-02 -4.23730053e-02 -1.12918923e-02
   5.47399931e-02 -1.08288482e-01  2.61815656e-02  6.74349293e-02
  -1.03114821e-01  5.73796860e-04  9.70401093e-02  3.69617157e-02
  -5.00174239e-02 -4.72566821e-02 -5.93613535e-02 -3.91612351e-02
   6.26207814e-02 -3.07566840e-02 -1.84743442e-02 -4.62648720e-02
  -4.09533828e-02  2.81497743e-03  1.18237287e-02 -3.04800346e-02
   3.20383757e-02  1.30709752e-01 -6.06990084e-02  3.36165018e-02
  -3.34543432e-03  6.93069596e-04  5.21784835e-02 -5.21360487e-02
   2.07131058e-02 -1.21995108e-02  1.39041916e-02 -7.64654800e-02
  -6.85291141e-02  8.35973956e-03  1.54377986e-02  3.52318138e-02
   1.83581840e-02 -1.50769681e-01 -2.70783473e-02 -9.75922793e-02
  -9.11218747e-02  1.50281368e-02 -3.71249169e-02 -5.59389405e-02
  -1.78838503e-02 -2.80728173e-02 -1.40252421e-02 -9.31037813e-02
  -1.10521959e-02  4.60317545e-02  6.55626133e-03 -8.52140971e-03
  -2.49806605e-02 -4.58225980e-02  5.28409481e-02 -1.18520118e-01
   2.04958599e-02  1.36206839e-02 -4.06074375e-02 -8.12638476e-02
  -6.31762147e-02 -1.38362925e-02 -1.69154163e-02 -3.17774191e-02]
 [ 9.18817446e-02  8.28222483e-02  1.06304392e-01 -7.51442388e-02
   1.70463976e-02  6.69056922e-02  5.11764437e-02 -1.65710263e-02
  -5.37287146e-02 -5.00675812e-02  3.43952961e-02  2.04423461e-02
  -1.06676951e-01  1.78147003e-03 -9.47079062e-03 -7.60030514e-03
  -3.32925133e-02 -1.34861749e-02  3.13200988e-02 -7.83600509e-02
  -6.01915829e-03 -8.25431943e-02  5.81272729e-02 -1.29870267e-03
   3.14045288e-02 -3.65570411e-02 -2.92197410e-02 -4.64187376e-03
   1.26230838e-02 -3.00312359e-02 -2.85736583e-02 -3.00181657e-02
  -1.41699612e-03  2.27698341e-01  6.04892261e-02  6.73253015e-02
  -1.55879855e-01  2.27361862e-02 -2.82658413e-02  2.36071032e-02
   6.68769106e-02  3.94123001e-03 -5.72595596e-02 -4.64783907e-02
  -2.58161481e-02 -1.98701888e-01 -5.47109284e-02 -4.24218923e-03
   1.70118824e-01 -5.82013838e-02 -6.10993989e-02 -1.46980202e-02
  -6.22116327e-02 -1.03134010e-02 -1.82901882e-02 -1.61375590e-02
   4.18444425e-02  6.39633611e-02 -4.09272127e-02 -2.97754426e-02
  -1.71568468e-01  6.94279149e-02 -1.94936171e-02  3.12530845e-02
   3.21345776e-02  3.60560901e-02 -1.13850331e-03 -6.50818693e-03
   1.44848257e-01  2.32215039e-02  5.44535927e-02  2.46493779e-02
  -1.64396949e-02 -7.62201846e-02  1.82135805e-01  8.11580345e-02
  -1.29706934e-02  5.36223948e-02  1.61852986e-02  7.37550762e-03
   1.45948783e-01 -8.34806710e-02 -2.29718592e-02  8.52832273e-02
  -4.23073135e-02 -1.63414329e-01 -7.63500109e-02 -6.45678788e-02
   2.67526638e-02 -5.48236817e-03 -2.52203681e-02 -1.30951986e-01
  -6.78179786e-02 -1.65723898e-02  3.86795029e-03 -3.79553102e-02
  -1.20558180e-02  2.02319268e-02 -5.04164696e-02  3.83551531e-02
  -4.32050712e-02  1.34573340e-01  2.12406397e-01 -3.67493592e-02
  -3.14188283e-03 -6.95680529e-02  2.33678538e-02 -3.75020429e-02
  -1.63731549e-03 -1.04314974e-02  2.26386879e-02 -9.31890123e-03
  -2.63528526e-03 -2.93469243e-02  2.06985921e-01  2.24430840e-02
  -6.07283115e-02  3.33179384e-02 -2.63160110e-01 -4.56742458e-02
  -2.42695343e-02 -1.03479393e-01 -3.49190831e-03  2.45755017e-02
  -1.85032059e-02 -4.32582274e-02  1.41554996e-02  2.26861462e-02]
 [-3.56785096e-02 -8.70843828e-02 -5.21970280e-02 -2.71200426e-02
  -3.06546222e-02 -6.99595213e-02 -2.86581069e-02  6.20735576e-03
   8.69934857e-02  6.85964525e-02 -6.48754044e-03 -7.67451599e-02
   8.55478048e-02  2.87838001e-02  4.91267107e-02 -1.22664489e-01
  -1.84416771e-02 -8.23730454e-02 -3.97654064e-03  6.52694749e-03
  -3.38156559e-02 -1.03236269e-02 -4.55432236e-02  3.55440415e-02
   1.65238753e-02  1.90004997e-03 -4.58514877e-02  1.17692752e-02
  -4.69190516e-02  2.45729256e-02 -1.39160240e-02  1.32218534e-02
   2.03001052e-02 -4.23369147e-02  2.41310801e-02 -1.95055399e-02
  -4.26955000e-02 -1.99994519e-01 -1.84967089e-02 -6.55160174e-02
  -1.14997728e-02 -4.13902402e-02 -1.99910831e-02 -9.89823788e-03
  -4.04703170e-02 -1.00548558e-01 -2.98995469e-02 -6.11250997e-02
  -5.11769764e-02 -1.31298482e-01  1.62684117e-02 -1.22422852e-01
   7.50174467e-03 -4.73415330e-02  5.36198029e-03 -2.86532864e-02
  -4.80190068e-02 -2.13362686e-02  3.00820712e-02 -2.45092195e-02
  -2.80516427e-02  2.08286121e-02  6.37237728e-02 -1.04857134e-02
  -4.63930517e-02  2.51146760e-02 -1.15871159e-02 -1.02918362e-02
  -1.15468942e-01 -5.04992418e-02  9.23013431e-04 -2.70443968e-02
   1.76120049e-03 -1.03686802e-01  3.11454255e-02 -8.25560689e-02
   1.17392205e-01 -1.90216854e-01  1.69224851e-02  4.56326865e-02
   3.47745381e-02 -1.51114672e-01  1.06083313e-02 -6.31359294e-02
   3.84775624e-02  7.24417642e-02  6.58869836e-03 -5.26931956e-02
  -4.96521853e-02 -6.21028468e-02  1.45339742e-02  1.14295840e-01
  -2.49919221e-02  9.82737169e-03 -6.12716489e-02 -7.11583998e-03
  -5.48091829e-02 -2.99365819e-02 -3.39772254e-02 -1.20190233e-01
  -1.66129209e-02 -1.32822558e-01  3.88767719e-02 -7.24816099e-02
  -5.51604107e-02  5.60366698e-02  2.15767324e-02  5.00619523e-02
   2.93802191e-02  3.79203893e-02 -8.66258442e-02 -5.45687936e-02
  -1.91685036e-02 -1.11097567e-01  2.13155188e-02 -4.81838584e-02
   5.84079139e-03  2.57858243e-02  2.44121160e-02 -1.38553325e-02
  -1.82764739e-01 -7.42407665e-02 -5.12390845e-02  5.96163906e-02
  -1.66674927e-02 -2.97736153e-02 -4.99907881e-03 -8.54515806e-02]
 [-2.48159617e-02  4.62879520e-03 -1.31869223e-02 -2.71149762e-02
   3.93211283e-02  2.34253313e-02 -6.29315004e-02 -1.17264176e-02
  -1.73789859e-02 -4.07788604e-02 -9.97979473e-03  6.34286255e-02
   6.69203401e-02 -4.59549837e-02 -5.62170111e-02 -4.07488383e-02
   4.20349538e-02  7.88567401e-03 -3.49260215e-03  1.59226917e-02
  -1.04940869e-02 -4.27406467e-02 -8.16405490e-02 -5.84382489e-02
   9.73851979e-03 -4.15138341e-02 -7.62618706e-02  1.01901805e-02
  -9.11968127e-02  8.28176178e-03 -4.73541394e-02  3.17834876e-02
  -1.99071746e-02 -6.23795576e-02 -2.70766728e-02 -9.81231630e-02
   1.65414568e-02 -1.04409993e-01 -2.11302135e-02 -2.93063894e-02
  -6.12869337e-02 -5.37021905e-02 -6.39486983e-02 -4.98336032e-02
  -3.64017151e-02 -2.09839153e-03  2.62142741e-03 -2.30512191e-02
   3.17622051e-02 -1.51752546e-01 -6.04847558e-02 -1.77994836e-02
  -8.47706851e-03  1.37295751e-02  2.68656332e-02 -3.70524102e-03
  -2.67517529e-02 -2.09870301e-02 -1.04225893e-02 -2.00211499e-02
   3.78313661e-02  2.52791531e-02 -9.43048596e-02 -3.48488311e-03
  -1.80097725e-02 -4.38065492e-02  1.24962181e-02 -6.85483590e-02
   5.31520322e-02 -1.36746138e-01  3.55111398e-02  2.13226676e-02
   2.98296902e-02 -1.08686112e-01 -6.89076842e-04 -9.50366482e-02
   1.81742734e-03  2.07907576e-02  7.85728637e-03 -6.32430762e-02
   3.26811485e-02 -2.32413784e-02 -1.11378171e-02  4.65740450e-05
  -3.83185484e-02  3.24658938e-02 -2.30065510e-02  3.27255167e-02
  -2.61068232e-02  2.74003693e-03  3.82950790e-02 -7.11031556e-02
  -2.90884599e-02 -1.47776410e-03 -2.40300670e-02 -5.18778041e-02
   3.26054059e-02 -1.42627776e-01 -6.80656582e-02  4.74436693e-02
  -3.15364799e-03  1.30257076e-02 -3.11783589e-02 -7.56608620e-02
  -2.25586928e-02  2.02870183e-02 -2.79660821e-02 -9.95531306e-02
   1.11929085e-02  6.13302365e-02 -1.53694842e-02 -7.34031647e-02
  -2.26053391e-02  6.07766062e-02  3.62913013e-02 -5.59127564e-03
  -4.64003868e-02  2.85807643e-02 -2.29707267e-03 -5.56230694e-02
   1.98976621e-02  1.96666848e-02  2.39899289e-02  2.92499717e-02
  -3.85932624e-02 -2.74286158e-02  3.38923410e-02  5.51140346e-02]
 [-1.75484121e-01 -3.65504287e-02  7.14453729e-03  5.95134385e-02
  -7.78065920e-02  1.40551552e-01  3.07439007e-02 -5.63775897e-02
  -1.27899498e-01 -4.78492342e-02  1.45546682e-02  4.95142825e-02
  -2.34435618e-01 -6.01480342e-02  1.84438042e-02 -1.41645029e-01
  -5.16763292e-02 -1.78774104e-01 -3.80930416e-02 -1.51608465e-02
   2.67716330e-02  2.87748594e-03 -3.08423466e-03  3.47681642e-02
  -8.38692188e-02  4.88625579e-02  9.20415099e-04  6.03496050e-03
   8.06230456e-02 -4.15281318e-02  1.02137867e-02 -4.37529525e-03
  -2.76901554e-02  4.18666638e-02 -3.60895246e-02 -9.93846804e-02
   1.84279643e-02  6.07777089e-02 -2.43956968e-02 -9.95580759e-03
   4.61762212e-03 -2.84360163e-02  2.34418232e-02  3.70169291e-04
  -2.08156984e-02 -6.99889958e-02 -5.74530177e-02  6.82862150e-03
   1.47057295e-01  4.09908369e-02 -2.68780366e-02  2.45652702e-02
  -4.14442690e-03  2.86564045e-02  8.11378192e-03 -3.23689692e-02
   8.44040420e-03  3.81941125e-02 -1.44424923e-02  4.23521064e-02
   1.02922693e-02 -3.23698670e-02  1.98425818e-02 -2.00912282e-02
  -5.36640659e-02  6.67520193e-03 -3.56839970e-02 -1.47485688e-01
   2.44626161e-02 -8.09575543e-02 -6.27288595e-02  5.10275643e-03
  -4.84752506e-02  1.16663940e-01 -4.73907515e-02 -8.92671794e-02
  -9.18064788e-02 -3.90888304e-02  4.15498428e-02  1.56963822e-02
   1.49652287e-01 -2.58179307e-01  1.31469006e-02  2.92182099e-02
  -1.49029531e-02 -1.38460219e-01 -2.14061495e-02  2.55271550e-02
   8.02008584e-02 -5.99638838e-03 -3.80687788e-02 -6.82056099e-02
  -5.43635860e-02  3.17254066e-02 -6.09779358e-03 -3.67895700e-02
  -1.58230476e-02  8.77869781e-03 -9.09958556e-02  1.50379181e-01
   2.03965195e-02  3.04188468e-02  1.20918013e-01  2.89882515e-02
  -2.64324304e-02 -7.13118687e-02  6.72897026e-02  1.06454678e-01
   2.22433694e-02  8.01655371e-03  1.19341118e-02  8.23699087e-02
   8.06192867e-03 -3.18992846e-02  1.39667228e-01 -6.58662524e-03
  -7.86718652e-02 -4.59372476e-02 -3.65352482e-02 -7.29444101e-02
   1.57683536e-01 -1.31596357e-01  3.37844864e-02  2.16148309e-02
   3.35257463e-02 -3.78990062e-02  5.76786231e-03  1.58812508e-01]
 [ 1.16072834e-01 -5.68844564e-02  7.57714212e-02 -7.29717268e-03
   1.00936173e-02 -4.68836073e-03  6.98192343e-02  8.12084898e-02
  -7.22373948e-02 -1.14226062e-02  3.78913768e-02  1.53746800e-02
  -8.60516950e-02 -7.16141686e-02 -6.36973381e-02  8.19899887e-02
   1.00846723e-01 -4.77018580e-02  5.21179475e-02 -5.30443154e-02
  -9.64382589e-02  7.61073306e-02 -3.26729566e-02 -3.95099334e-02
  -5.66895306e-02  2.00530142e-02 -7.81252533e-02  2.91729737e-02
   1.53030485e-01 -1.76783670e-02 -4.71719168e-02 -1.19320884e-01
  -7.59749487e-02 -4.55321185e-02 -3.37273590e-02 -3.71174328e-03
   3.79385017e-02 -9.81728360e-02 -3.21759321e-02 -3.11546102e-02
  -8.11611768e-03 -9.44252014e-02 -2.76398510e-02 -4.46986184e-02
  -1.16497688e-02  8.34758356e-02 -2.99498322e-03 -4.20200005e-02
  -1.17051929e-01  5.78928106e-02  1.59798525e-02 -6.35081157e-03
  -6.62354976e-02  1.08839152e-02  3.15624960e-02 -6.64013922e-02
   4.60286885e-02 -1.83388572e-02 -2.04174798e-02 -2.23627128e-02
  -4.51617837e-02  6.14167303e-02 -1.49232391e-02  6.72651175e-03
  -2.59152260e-02  5.62415123e-02  2.69445535e-02 -7.58747458e-02
  -1.32315354e-02  6.12599887e-02  6.08633924e-03  3.25016640e-02
  -3.76988947e-02 -2.00269744e-02  9.97814015e-02  7.83877149e-02
   3.41058560e-02 -1.20876543e-03 -3.48811336e-02  3.35801989e-02
  -1.15372695e-01 -1.29079968e-01  8.67670868e-03  5.08531323e-03
  -1.45553891e-02  7.73900300e-02  4.41963188e-02  4.73505184e-02
   5.34929670e-02 -1.19002908e-02 -8.80490839e-02  4.61977981e-02
   5.00482023e-02 -2.20761783e-02  4.14044634e-02  4.90106605e-02
   8.35236721e-03  1.42942175e-01 -6.64880350e-02  3.49949002e-02
  -1.46658979e-02  2.08689064e-01  6.74771219e-02 -9.95337144e-02
  -9.07716453e-02 -6.97710142e-02  5.01868203e-02 -2.27385402e-01
   1.94034900e-03 -5.38873188e-02  3.44204791e-02  7.53117055e-02
   1.43663967e-02 -7.36476481e-02 -4.37037162e-02  3.67355123e-02
  -1.73562448e-02  4.17318381e-02  6.46944204e-03  4.20495681e-02
   1.31828427e-01 -6.06976124e-03 -3.97626199e-02 -6.31739385e-03
  -2.68560220e-02 -4.05871347e-02 -4.10973327e-03  8.60507563e-02]
 [-1.66638806e-01 -8.17141831e-02 -2.45460086e-02 -5.71482442e-02
  -7.28432508e-03 -5.03114648e-02  3.84405218e-02  3.90953477e-03
   1.04827113e-01 -2.94669978e-02 -4.01997007e-02 -6.83667734e-02
   2.82259714e-02 -5.70361596e-03  3.49249318e-02  8.98606554e-02
  -4.24052179e-02  2.85918023e-02 -1.72241256e-02 -6.76703677e-02
  -4.51776944e-02 -2.70999391e-02 -2.16292553e-02  8.34501814e-03
  -2.10922156e-02 -4.79933769e-02  2.71555800e-02  5.33781722e-02
  -6.80781752e-02 -2.07759533e-02 -3.06821410e-02 -3.69859003e-02
  -2.59608193e-03 -3.91302891e-02 -4.28244993e-02 -8.36905241e-02
   3.67384590e-02  2.11684126e-02  1.70245338e-02  8.68531293e-04
   3.92175429e-02  1.75999012e-02  4.11667153e-02 -3.84971984e-02
  -7.27372710e-03  1.12755247e-03  1.99000631e-02 -4.41694930e-02
  -1.99175291e-02 -1.48829427e-02  3.65590048e-03 -4.04895702e-03
  -2.26663109e-02 -2.13483609e-02  1.25478422e-02 -1.16301328e-01
  -2.66398825e-02 -3.46504599e-02 -3.97997610e-02 -3.31893787e-02
   1.56385954e-02 -6.54647425e-02  3.21017727e-02 -6.33893311e-02
  -4.66500893e-02 -4.10114601e-02 -1.07304966e-02  2.82763839e-02
  -1.75814688e-01  1.31796211e-01  1.18098222e-01  4.93168086e-02
  -5.25243441e-03  3.17123793e-02 -5.70929572e-02 -2.40515117e-02
   3.97063568e-02 -7.15857446e-02 -2.65682880e-02 -1.25889573e-02
  -1.17159247e-01  3.32836173e-02 -4.63564247e-02  6.16130605e-02
   2.40164585e-02  9.87596139e-02 -1.71734281e-02  3.05915996e-02
   1.67695824e-02 -3.92768160e-02  1.62034035e-02  4.97478023e-02
   1.71651263e-02  1.51518043e-02 -4.86034155e-02 -6.34111390e-02
  -3.81178074e-02 -1.79645866e-02 -2.32200697e-02 -1.62925590e-02
   2.06295028e-02 -1.58669025e-01  7.52821937e-03 -1.48925528e-01
  -8.50104094e-02 -8.09077695e-02 -2.43031029e-02 -2.13771742e-02
  -6.17978163e-03 -4.00431417e-02 -2.63844314e-03 -2.74875537e-02
  -2.74925958e-02  4.69400138e-02 -2.11430714e-02  4.00904939e-02
  -4.81032627e-03  2.51155775e-02  7.37272725e-02 -6.40200526e-02
   5.60588539e-02  6.35055592e-03  5.03455549e-02 -3.13573666e-02
   2.89280489e-02 -4.42491099e-02 -2.66195200e-02 -1.11630149e-01]
 [ 2.65468899e-02  5.18127456e-02  1.99341979e-02  5.60407005e-02
   1.51604479e-02 -5.51519031e-03 -6.91504329e-02 -3.91573273e-02
  -4.23774645e-02  2.37833094e-02  5.77163547e-02  5.11501692e-02
  -1.49310246e-01 -2.39252136e-03  5.01414314e-02  9.45897102e-02
  -3.10211387e-02  5.36897816e-02  1.42893165e-01  3.50339860e-02
  -1.63004436e-02 -3.84729542e-02 -9.26990509e-02 -7.81704709e-02
  -3.59398387e-02  1.25204567e-02 -7.14221075e-02 -2.22585164e-02
  -3.15813906e-02  1.80680375e-03 -4.23694588e-02 -2.68620700e-02
   2.00463627e-02  8.22799373e-03 -2.62113530e-02 -4.89115044e-02
  -5.57306111e-02  4.87571657e-02 -1.28898799e-01 -5.65649681e-02
  -4.59929220e-02 -3.07795834e-02  4.47929129e-02 -4.67150137e-02
   3.30936238e-02 -2.03148901e-01 -6.15209416e-02 -2.59400047e-02
   1.68485329e-01  6.18036091e-02  4.27006073e-02 -6.61210939e-02
   4.49892506e-02 -6.59966245e-02  4.12223581e-03 -5.65095544e-02
   1.25203915e-02 -2.90429723e-02 -2.69533899e-02 -2.85670850e-02
  -2.58205116e-01  3.35653909e-02 -7.69199710e-03  2.96679735e-02
  -1.01220300e-02  7.04667950e-03  8.20895005e-03 -9.56620798e-02
   1.01930857e-01  7.29016438e-02  5.88497240e-03 -6.75561279e-03
   2.46782023e-02  6.34953603e-02 -3.49208713e-02  1.10238008e-01
   1.10456720e-01  6.37782067e-02 -5.50626256e-02  1.97180593e-03
  -3.49601097e-02 -5.16273864e-02  2.29170378e-02  3.90129872e-02
   3.95268342e-03 -4.88112085e-02 -5.10162078e-02 -1.27015589e-02
   4.11846191e-02 -5.86955734e-02 -2.63138805e-02 -7.44040310e-02
  -6.27834871e-02  1.02672987e-02 -3.21682617e-02 -4.53803837e-02
  -1.49130151e-02  4.78740223e-02 -3.25935930e-02 -5.73037155e-02
  -2.05919389e-02  2.06907913e-01  9.83767733e-02 -9.45993811e-02
  -2.89061463e-05 -9.12226513e-02  1.14704529e-02 -3.33889164e-02
  -4.79918644e-02 -3.17438729e-02  8.02499522e-03  2.40658410e-02
  -4.98360433e-02 -9.64627564e-02 -1.60890177e-03  6.24432899e-02
   1.20786116e-01 -3.67404036e-02 -1.72597080e-01 -6.98380992e-02
  -1.80856306e-02 -1.89374700e-01  1.88870803e-02  6.09857365e-02
  -3.43056433e-02 -6.12886660e-02 -3.49574015e-02  3.82511765e-02]
 [ 6.62914440e-02 -1.26858190e-01 -2.69303564e-03 -1.74264368e-02
   2.20643892e-03 -5.40230907e-02  1.19043933e-02  3.86449620e-02
  -1.98181793e-02  2.93329805e-02 -5.25584351e-03  2.42615882e-02
  -4.49348167e-02 -3.24975476e-02  7.29451131e-04 -1.08720623e-01
  -5.50772585e-02 -1.01537183e-01  6.08419813e-03  7.27553200e-03
  -1.34266689e-02  4.13747951e-02  2.23689619e-02  3.55732925e-02
  -3.87379006e-02 -4.32204865e-02 -4.11711037e-02 -2.96087395e-02
  -6.55252337e-02 -5.35801277e-02  1.86929596e-03 -2.70495582e-02
  -3.04447836e-04  2.59050541e-02  2.84540802e-02  1.78452190e-02
   2.22082920e-02 -1.08499639e-01 -3.64188440e-02  2.57604569e-02
  -4.78521995e-02 -6.17090799e-02 -3.50112617e-02  1.36344237e-02
   5.71076795e-02 -6.54308274e-02 -3.41140851e-02 -3.13399322e-02
  -1.51666313e-01 -1.23179309e-01  4.70519066e-02 -5.07937372e-02
   7.99600384e-04  4.31141034e-02  1.13151185e-02 -9.46295261e-02
   1.14590966e-03 -1.26844421e-02 -2.68006958e-02  4.14145030e-02
  -1.55024037e-01  1.50832226e-02  4.72671986e-02 -7.99991656e-03
   5.56210428e-02 -2.68372847e-03  7.97275081e-03  3.55367661e-02
  -3.99018563e-02 -8.42669532e-02 -7.12937117e-02  3.51384915e-02
  -1.21373385e-02 -7.41283968e-02  7.68226758e-02  7.32984394e-03
   2.64195334e-02 -1.46911323e-01  6.23413175e-02  1.40792374e-02
   8.24295953e-02 -6.08482324e-02 -5.28257526e-02 -3.88901718e-02
   5.07815070e-02  9.96632874e-02 -5.30902632e-02 -4.50547040e-03
  -6.34858981e-02  3.89204882e-02 -5.87592795e-02  1.02754578e-01
   2.65152082e-02  2.05457043e-02  2.51209014e-03 -4.99124043e-02
  -4.22386304e-02  3.85083854e-02  2.50069331e-02 -5.89484312e-02
   7.68345455e-03 -1.38415620e-01  7.71959778e-04 -7.74477981e-03
  -4.50089090e-02  1.46178201e-01 -5.82202747e-02  1.14996791e-01
   4.10229415e-02 -5.47280461e-02 -8.00632015e-02  1.32410368e-02
   5.40462136e-02 -9.93797183e-02  2.75324229e-02  5.20807840e-02
   3.48332934e-02  3.06705032e-02  2.22359002e-02  2.53488366e-02
   1.19758928e-02 -1.00004472e-01 -1.81889758e-02 -5.46071716e-02
   2.81182621e-02  5.12129217e-02 -7.09120324e-03 -7.05560446e-02]
 [-1.82161741e-02  1.32704317e-03  9.25255343e-02 -5.07389195e-02
  -1.81618202e-02  7.15690330e-02 -5.92126660e-02 -5.93161248e-02
  -3.76936607e-02 -2.39503961e-02 -1.04154162e-01  4.46687415e-02
  -3.55597213e-02 -6.11309782e-02 -4.63761576e-02  9.45743546e-02
   1.15039526e-02  6.46424061e-03  3.43811586e-02 -6.65843040e-02
  -3.11334454e-03  1.20246168e-02 -7.18694106e-02 -2.36516092e-02
  -5.14253266e-02 -6.81897104e-02  1.80276632e-02  8.98382906e-03
  -1.12449620e-02 -8.62710178e-03 -5.06259203e-02 -1.71841029e-02
  -1.64081585e-02  2.56766453e-02 -2.13293079e-02 -1.74051374e-02
  -1.92639306e-02 -5.66819422e-02 -2.01298483e-03 -1.48969674e-02
  -4.97257970e-02 -1.09419506e-02 -3.08044329e-02  4.40612584e-02
   1.31524494e-03 -4.49835658e-02  3.56048942e-02  1.19563295e-02
   6.03242405e-02 -9.04160738e-02  2.74059363e-02 -4.16361280e-02
  -3.94357108e-02 -5.35501949e-02  6.95208320e-03  1.71862803e-02
  -5.93160167e-02 -6.29688706e-03  1.10247815e-02 -5.70241772e-02
  -2.19136849e-02 -1.73887201e-02 -4.70709577e-02 -6.17754720e-02
   1.06906192e-02 -4.93666716e-02  3.11539676e-02  6.16504699e-02
   8.71425197e-02 -1.33550420e-01  1.02748863e-01 -4.93808240e-02
  -6.09006956e-02 -1.48635684e-02 -2.25907415e-02 -2.68396325e-02
  -5.21053262e-02  2.64367033e-02 -2.26710420e-02 -3.16914730e-02
  -3.78697254e-02  1.87628809e-02 -6.02321438e-02  5.54383546e-02
   3.31190936e-02  1.09435968e-01  3.26831527e-02  4.40792041e-03
   3.99822481e-02  3.86423059e-02  1.75319072e-02 -8.75794515e-02
  -1.20920418e-02  2.47199293e-02 -3.35670933e-02 -1.25208776e-02
   5.24729351e-03 -1.35181829e-01 -4.26989347e-02  3.98970995e-04
   3.14988680e-02 -2.45115086e-02  1.14970580e-02 -1.25888780e-01
   4.69274707e-02 -4.16158549e-02  2.90485770e-02 -5.33383600e-02
  -5.72645813e-02  2.06247550e-02  2.39585303e-02  7.63423881e-03
  -6.84973449e-02  1.20533048e-03  4.57130596e-02 -4.77501831e-04
  -7.71404579e-02  1.39740640e-02  6.09688601e-03  5.10519817e-02
   2.77059171e-02 -9.89254657e-03 -4.35274206e-02  4.44493555e-02
  -3.47746769e-03 -3.34571451e-02  1.72679946e-02  8.20843577e-02]
 [-1.27130955e-01  8.39204267e-02 -1.52986581e-02  1.26875147e-01
  -5.52621409e-02 -4.83062677e-03 -3.43050547e-02 -4.26877216e-02
  -6.46806732e-02 -3.30555104e-02 -3.91018465e-02  8.68503228e-02
  -1.86130971e-01 -6.76435083e-02 -5.32304384e-02 -1.06875688e-01
   5.72620630e-02 -1.29385829e-01 -8.71624351e-02  6.38452591e-03
  -7.76509792e-02 -3.32514234e-02  7.25908130e-02 -4.34427336e-03
  -5.89658730e-02 -2.72694714e-02 -5.73047018e-03 -1.76421180e-02
   3.68181989e-02  4.10946980e-02  1.09622262e-01 -5.74507751e-02
  -4.94400449e-02  8.25109556e-02  5.39806709e-02  6.91827089e-02
  -9.54591408e-02 -1.51228115e-01 -4.70310682e-03  2.49021333e-02
   3.18065286e-02 -5.51375635e-02  8.30724090e-03 -3.41070443e-02
   1.79482494e-02  5.63890450e-02 -2.35597566e-02  8.95106941e-02
   1.91083699e-01  5.82186654e-02 -6.05064444e-02  9.30273160e-02
   4.17456888e-02  2.67257225e-02 -2.24657562e-02  2.00166665e-02
  -1.08949076e-02 -2.23584976e-02 -4.79021668e-02  2.36012880e-02
  -9.57458243e-02  7.75153190e-02  5.35518155e-02  1.33500332e-02
  -4.60981205e-02  4.44639996e-02 -9.23197065e-03 -7.67313689e-02
   7.22839609e-02 -3.73271853e-02  6.15375079e-02 -2.93501541e-02
  -4.88641262e-02  6.75920993e-02 -2.08122313e-01 -2.83723891e-01
  -1.08185567e-01 -8.16665031e-03  5.56647778e-02  3.93070579e-02
   1.76972911e-01  5.56383990e-02  3.10496357e-03  8.76198038e-02
   1.08216489e-02 -6.72078133e-02 -3.57407555e-02  2.23232172e-02
  -1.28379101e-02  4.16778177e-02 -3.85197364e-02 -1.03372172e-03
   4.63367589e-02  1.84294842e-02 -2.43893405e-03  2.86365319e-02
   4.04109284e-02  1.21054545e-01 -1.87583324e-02  6.13234118e-02
   2.42758403e-03  5.65796858e-03 -1.60400253e-02  4.49241959e-02
   5.64208478e-02 -4.87854443e-02  2.13038474e-02  3.17702070e-02
  -5.35623580e-02 -4.79079112e-02  1.09085269e-01 -2.99326442e-02
  -5.48128560e-02  8.57811421e-02  5.79541586e-02 -1.72065631e-01
  -7.87776336e-02 -2.42062416e-02 -4.16617990e-02 -1.07646585e-01
   1.95447043e-01 -1.42875433e-01  2.31473539e-02  5.23857772e-02
   1.29373353e-02  2.07218919e-02 -3.09000704e-02  4.54505011e-02]
 [ 7.44070858e-04 -8.08978230e-02  4.02322859e-02 -5.90665452e-02
  -2.35878117e-03 -1.25829190e-01  7.89040104e-02  8.72898474e-02
   2.21517985e-03 -2.17138715e-02 -4.49623764e-02  4.39611077e-02
  -7.82077610e-02  1.61655396e-02  3.88971670e-03  1.42520949e-01
   1.44813326e-03 -9.15391650e-03 -1.31968595e-03 -3.85428704e-02
   2.34504379e-02 -3.27295554e-03  6.00317754e-02 -4.95490916e-02
   6.25563844e-04 -4.87996601e-02  2.40507293e-02  7.44565064e-03
   9.36859772e-02  3.22643369e-02  5.44358976e-03 -5.21352626e-02
  -8.20082612e-03  1.16141371e-01 -3.68190296e-02  3.54128443e-02
  -6.41444698e-02 -1.14429779e-01 -2.62194406e-02 -2.17523053e-03
   1.80926570e-03  4.81231064e-02  4.06890512e-02 -2.10611094e-02
  -8.79157707e-03 -3.30513790e-02  2.69291792e-02 -6.68179542e-02
  -5.51377423e-02 -9.63012725e-02  1.70976985e-02  2.30773836e-02
   4.46826033e-03 -5.17983884e-02  2.26620734e-02 -2.65059825e-02
   2.53860112e-02  2.03542057e-02 -8.64622667e-02 -1.30604832e-02
   9.37700830e-03  7.68109858e-02  5.00800051e-02  6.46911412e-02
  -6.37037084e-02 -5.65254875e-02 -8.09916258e-02 -1.17709987e-01
  -4.84858220e-03  1.36413023e-01  7.87866116e-02 -4.40394916e-02
   6.48297891e-02  1.26132285e-02  9.96293426e-02 -1.09792560e-01
  -4.86585237e-02  2.41702143e-02  5.14696725e-02 -7.51273856e-02
  -5.98691963e-02 -1.01450838e-01  2.38392074e-02  7.01367483e-03
  -2.65209917e-02  1.01365209e-01  5.74011356e-02  2.44724546e-02
   1.02716293e-02 -2.62249243e-02 -3.99663895e-02  1.04842089e-01
   3.35460417e-02  3.69320228e-03  6.39839470e-02 -4.67098169e-02
  -7.91996196e-02  5.24282604e-02 -1.74808409e-02  8.91506076e-02
  -1.22127868e-02  6.75005317e-02 -4.84418720e-02 -4.42214124e-02
  -4.81081828e-02 -7.43249953e-02 -7.64934644e-02 -1.48680702e-01
  -3.22066471e-02  2.96533480e-03 -2.49652043e-02  2.89934035e-02
  -8.76498744e-02 -1.98232517e-01 -8.62392187e-02  4.67747301e-02
   2.04760339e-02 -8.82167835e-03  9.90052149e-02 -2.81734932e-02
   7.67935142e-02  6.77001104e-03  3.46301273e-02  4.78943847e-02
   1.74338017e-02  2.08896268e-02  5.38231470e-02  1.32689327e-02]
 [-6.29229546e-02 -1.08232848e-01 -1.80795953e-01  1.99107323e-02
   1.78018101e-02 -2.90011615e-02  4.12154570e-02  1.32022789e-02
   1.07172079e-01 -7.74794444e-02  2.48632617e-02  2.25991942e-03
   6.97810277e-02  4.40809280e-02 -4.67865467e-02 -1.29639417e-01
  -5.61804231e-03 -1.76235288e-02 -3.58250439e-02  9.55111813e-03
  -2.22951863e-02 -3.24386992e-02 -4.74554412e-02 -4.58067097e-02
  -5.83668463e-02 -1.26905600e-02  1.64139643e-02  9.93856788e-03
  -5.81153594e-02  1.16113331e-02 -1.09024178e-02 -7.03945681e-02
   2.99082212e-02 -7.31240213e-02  4.02989797e-02 -2.36844420e-02
   3.19436239e-03 -7.00901374e-02 -4.51421784e-03 -5.43054864e-02
  -4.68454212e-02 -1.25208339e-02  3.54439877e-02  2.27953978e-02
  -3.85798104e-02  2.60993671e-02  2.49372125e-02 -4.26905900e-02
  -6.38662726e-02 -1.63469631e-02  2.15523932e-02  3.32701020e-02
  -1.45959463e-02 -2.08642744e-02  4.61522900e-02 -1.67095754e-02
  -2.10714024e-02 -9.90622211e-03  3.76463011e-02 -3.79101909e-03
   1.17913382e-02  5.77241555e-02 -3.51476744e-02 -7.87632689e-02
   6.26075789e-02 -6.63904473e-02 -6.63442835e-02  6.84705153e-02
  -4.71495725e-02  8.89352560e-02  8.55927318e-02  3.85493152e-02
  -2.59753112e-02  1.90753657e-02 -1.16092518e-01  5.28050996e-02
   1.00176834e-01 -9.96886343e-02  4.67842966e-02 -6.27058297e-02
  -3.37371789e-02  3.28348204e-03 -2.41453033e-02 -2.29917397e-03
   8.80416017e-03  1.03283994e-01  3.17322798e-02  1.38898753e-03
  -8.13652277e-02  2.00816728e-02  2.19442379e-02  6.20041937e-02
   8.30447022e-03  2.13678442e-02 -3.96779999e-02 -3.15226503e-02
  -5.52047044e-04 -7.27327690e-02 -3.27621866e-03 -5.19781895e-02
  -3.77173945e-02 -1.57445937e-01 -1.66162271e-02 -8.12121555e-02
   1.45502333e-02 -1.00152642e-01 -1.65983464e-03 -5.20638302e-02
   5.00110760e-02 -5.33587933e-02  3.57161313e-02 -1.22393332e-02
  -2.74286745e-03  8.82348325e-03 -5.83840311e-02  3.44075598e-02
  -4.64285584e-03  1.12775182e-02  2.94511523e-02  2.37248698e-03
   1.97478905e-02 -8.85350537e-03 -5.43506630e-02  3.10055707e-02
   3.75433872e-03 -1.34528456e-02 -3.76645923e-02 -8.32963139e-02]
 [-4.75308113e-02  4.50987481e-02  1.05080888e-01  2.48018913e-02
  -4.83005168e-03 -1.32204190e-01 -1.42138894e-03 -6.32541254e-02
   2.53908969e-02 -1.87260918e-02 -2.95491517e-02  1.04687288e-01
  -1.17031723e-01  3.52100022e-02  4.79828678e-02  6.24258257e-02
  -6.61486760e-02  1.10353064e-03 -5.59685454e-02 -5.98160699e-02
   6.60715625e-02 -3.79283959e-03 -4.78615612e-02 -2.19996478e-02
  -3.14879119e-02  2.73190737e-02 -4.82533388e-02 -2.54854653e-02
   4.48243134e-02 -4.13337313e-02  5.51514551e-02 -8.84069875e-02
  -9.92213143e-04  7.02965558e-02 -7.10514709e-02 -1.87639706e-02
  -2.54512638e-01  3.57321948e-02 -1.04583055e-01 -2.40786485e-02
   1.28620733e-02  1.43343937e-02  1.62491053e-02  2.96206214e-02
  -3.22242230e-02 -4.19210523e-01 -1.02895880e-02  3.94832306e-02
   1.76882133e-01  5.40596284e-02 -3.34634520e-02 -1.74091551e-02
   5.69410576e-03 -5.53224906e-02  4.88350354e-03 -3.81479040e-02
  -3.34253870e-02 -1.50625259e-02  5.61768301e-02 -3.35217230e-02
  -2.07861234e-02 -9.19186547e-02 -6.14329241e-02  2.31662299e-02
  -4.43773456e-02 -5.32895932e-03  1.87422764e-02 -1.84662268e-01
   1.00333437e-01  1.24182157e-01  5.16310567e-03 -2.42094137e-02
  -1.89905521e-02  3.94111089e-02 -4.59023975e-02  2.78784800e-03
  -5.03192209e-02  9.89307240e-02 -4.31065857e-02  8.66790302e-03
   1.00570463e-01  4.78793913e-03  1.77043013e-03  1.74748506e-02
  -7.51442323e-03 -7.08768368e-02 -1.26466127e-02 -2.61740237e-02
  -4.75114509e-02  5.19563965e-02 -1.21542555e-03 -1.40902167e-02
   1.23043079e-02 -6.18145093e-02 -2.65555270e-02 -1.78132951e-02
   8.39693286e-03  5.70489615e-02 -4.09809016e-02 -3.55974771e-02
  -3.55069786e-02  2.25671202e-01  8.24441463e-02  6.52565360e-02
  -1.91306397e-02 -8.17851052e-02  8.50282162e-02 -1.58800427e-02
   3.27659175e-02  4.42832112e-02  8.61955509e-02  9.45782438e-02
  -8.16381872e-02  9.56304893e-02  1.53060421e-01 -7.28886295e-03
  -4.57299799e-02 -2.70083677e-02 -3.82432565e-02 -9.69335251e-03
   4.89028990e-02 -4.36178148e-02 -3.69340703e-02  4.48218063e-02
  -1.65623873e-02 -6.89861923e-02 -5.64056970e-02  2.40314286e-02]
 [-9.76016968e-02 -7.68170208e-02 -8.14384744e-02 -5.55655062e-02
  -5.65274768e-02  3.36116925e-02  1.62750427e-02  1.70330387e-02
   8.91226679e-02  4.54543605e-02 -6.08853204e-03  1.18694715e-02
  -1.01095088e-01  3.56191434e-02 -6.02769367e-02  1.17215551e-02
  -4.09084409e-02 -1.08565688e-01  4.58875019e-03  2.88589136e-03
  -2.99659707e-02 -6.87563419e-02 -3.83658335e-02  7.70217599e-03
  -1.17222704e-02 -5.13912924e-02 -7.14661404e-02 -4.26747762e-02
  -2.84548011e-02  3.78741063e-02 -3.50897871e-02  8.78030623e-05
   2.30185427e-02 -4.04564925e-02 -1.90640409e-02  2.90787239e-02
   1.61433127e-02 -1.96694266e-02  3.40746567e-02  2.35649105e-02
  -4.16375212e-02 -6.29376993e-02 -4.99391668e-02 -1.13954423e-02
  -1.79715152e-03 -2.46576481e-02 -1.20734386e-02 -9.73748267e-02
  -7.41579160e-02 -6.07943311e-02  3.03216670e-02 -7.04671582e-03
  -2.40073819e-03  4.70908731e-03  1.28697045e-02 -6.54317215e-02
   4.30208109e-02  3.12287156e-02 -5.23220450e-02  2.71565486e-02
  -2.69985199e-02 -1.55988196e-02  6.06193282e-02  4.11253888e-03
   5.98235056e-05 -2.17241235e-02  3.34087759e-02  2.81126844e-03
  -4.98532355e-02 -6.94715278e-03  9.24536306e-03 -6.02591559e-02
  -5.05506843e-02 -7.42089674e-02  7.57951811e-02 -9.84377190e-02
   5.55561064e-03  4.48724180e-02  4.08802293e-02  2.85376678e-03
   3.91543582e-02 -1.88150436e-01  3.19668911e-02 -5.57138138e-02
  -6.24165758e-02 -3.99186052e-02 -2.40538409e-03 -3.73973325e-02
  -2.49235984e-02  3.96355577e-02 -3.68856415e-02  5.40083535e-02
   2.60123443e-02  5.22706844e-02  1.54564828e-02 -2.84535601e-03
   4.27831858e-02  5.12140878e-02 -3.10821999e-02 -3.83329131e-02
   2.83165239e-02 -1.12244688e-01  6.43114150e-02 -4.94827740e-02
  -2.43857671e-02  1.16109714e-01 -1.61755458e-02  1.07041433e-01
   1.43826399e-02  4.39195745e-02 -7.56833032e-02 -3.58409993e-02
  -4.28578556e-02 -2.75481623e-02  8.12276155e-02 -4.19696700e-03
  -9.98997465e-02 -3.94369140e-02 -7.49544650e-02 -2.52952464e-02
   3.81375477e-02 -6.58323765e-02 -2.34983079e-02 -5.94929839e-03
   1.59000959e-02 -5.96937723e-02 -3.34813409e-02 -7.51984864e-03]
 [ 6.03436828e-02 -9.51772779e-02  9.78085957e-03 -6.08241111e-02
   6.75482256e-03 -5.69725856e-02  4.15064767e-03 -4.25926186e-02
   5.20482138e-02 -9.94013622e-03 -6.97571933e-02  2.35573296e-02
   6.94980798e-03  3.57826576e-02  1.48051428e-02 -1.89648382e-02
  -4.19180887e-03 -5.24479859e-02 -7.04264119e-02  1.38843362e-03
   3.73382051e-03  4.18596976e-02  3.38604562e-02 -5.04853502e-02
  -2.64757853e-02 -3.00227548e-03 -4.73610731e-03  4.93882820e-02
  -3.66145466e-03  1.89354946e-03 -7.67554268e-02 -5.30907325e-02
   2.88769342e-02  2.38033012e-02 -1.70016456e-02  3.53892520e-02
   6.43002316e-02 -9.42680016e-02  4.58791703e-02 -4.42600213e-02
  -3.68917536e-04  2.36504944e-03 -1.29340384e-02  4.12201360e-02
   4.72382382e-02  6.35977164e-02 -4.90017794e-02 -9.76328477e-02
   2.67152712e-02 -4.48699556e-02 -5.48475496e-02 -2.79830117e-02
   3.78261460e-03 -3.19819227e-02  2.24085525e-03 -7.75178000e-02
   5.79754170e-03 -4.46921326e-02  3.74562740e-02 -6.19425215e-02
  -2.66686082e-02 -5.38017880e-03 -1.98492338e-03 -1.52709698e-02
   2.40574032e-02  6.90122228e-03 -6.41039014e-02 -5.25261275e-03
   1.70044694e-02 -1.05412841e-01  8.37550908e-02 -4.36880589e-02
  -3.15180048e-02 -4.66821678e-02 -4.47682180e-02 -4.15822444e-03
   5.02384640e-02  1.60289571e-01 -3.10441223e-03  3.89148369e-02
  -2.49897782e-02  3.46204899e-02  1.12823313e-02  2.91784909e-02
   8.52891803e-02 -3.13604735e-02 -3.75261763e-03 -6.78114444e-02
  -3.00299544e-02  4.39210199e-02  4.90742773e-02  1.11756157e-02
  -1.16622988e-02  5.19522652e-02 -4.45236173e-03 -3.87217514e-02
  -9.82176699e-03 -2.58642696e-02 -9.43739414e-02 -5.26272245e-02
  -1.88006498e-02 -9.67560709e-02 -1.07734213e-02 -1.03322744e-01
   3.37097533e-02  2.25413591e-02  4.02754620e-02  9.61751398e-03
   2.19560252e-03  1.99071728e-02  1.26511035e-02 -9.54700559e-02
  -8.86082947e-02 -4.07271720e-02  4.79461327e-02  3.98997916e-03
  -5.39658144e-02 -2.09785458e-02  1.35711864e-01 -8.63435268e-02
   3.48673016e-03  6.42889440e-02 -2.88234483e-02 -4.19532843e-02
  -7.69833848e-02 -1.69979148e-02 -1.69408992e-02  7.49261156e-02]
 [-1.24631124e-02 -5.52326851e-02  5.53437648e-03 -5.17692836e-03
  -1.72253745e-03 -7.89443627e-02  8.07480142e-03 -5.17005138e-02
  -1.60005361e-01  8.04184005e-03 -7.14947358e-02  8.74099582e-02
  -2.63550848e-01 -3.71432118e-02 -4.62548025e-02 -1.01425149e-01
   4.39347140e-02 -4.75096442e-02 -3.25643085e-02  8.42389464e-03
  -3.48400027e-02  7.69674554e-02  2.83498075e-02  7.87351429e-02
  -4.90448624e-02  8.39847103e-02 -1.85329281e-02  3.01621240e-02
   9.39297825e-02  6.57768771e-02 -1.57292951e-02  1.03019690e-03
   1.30362194e-02  8.05290714e-02  9.09125432e-03 -3.45743038e-02
  -6.82915673e-02 -2.05159411e-01  5.61690191e-03 -1.36109199e-02
  -6.81636631e-02  2.11134665e-02 -8.24601203e-03  5.03788702e-02
  -2.14662030e-02 -3.37962359e-02  3.79718728e-02  9.10974443e-02
  -1.83957815e-02 -1.62238285e-01 -1.65439602e-02  1.64052799e-01
   1.37390774e-02  3.65768410e-02 -4.92586456e-02 -1.72345974e-02
  -3.01199649e-02 -4.95506674e-02  7.45681971e-02  5.66245578e-02
  -1.09799847e-01 -6.42882288e-02 -3.16147320e-02 -5.51970005e-02
  -6.38980940e-02  2.81049255e-02  4.94312569e-02 -5.10616787e-02
   1.96848698e-02 -7.67185315e-02 -6.18980862e-02  7.15422584e-03
  -6.11806698e-02  1.34553397e-02 -1.85851187e-01 -3.84783626e-01
  -1.85469031e-01  1.15124427e-01  6.14933111e-03 -6.14462048e-02
   1.10722095e-01  6.83976933e-02 -7.48484507e-02 -2.31983453e-01
  -1.32974889e-02 -4.26138006e-02  2.91853771e-02 -2.78909784e-02
  -5.53763919e-02  6.12708228e-03 -1.70751195e-02  1.65654961e-02
  -6.66174218e-02 -4.35726903e-02 -2.40969379e-02  1.02132149e-02
  -2.92965514e-03  8.78322199e-02  5.46048209e-02  1.98657066e-01
   2.85041295e-02  1.27582744e-01 -2.63085455e-01 -2.51702499e-02
  -5.73642626e-02 -7.90340677e-02  4.53629233e-02  8.35100859e-02
  -9.63131897e-03 -6.31135553e-02  2.58439453e-03  3.45522948e-02
  -9.20227170e-03  1.08067341e-01  3.34724225e-02 -1.30440459e-01
  -3.63345593e-02  2.57909335e-02 -4.31754217e-02 -3.08012515e-02
   1.67020887e-01 -8.64703730e-02  2.40774509e-02  6.42359704e-02
  -3.45567316e-02  3.31277512e-02 -4.93879989e-03  2.11731791e-02]
 [ 4.20344882e-02 -2.71459538e-02  3.57110389e-02  8.94764960e-02
  -7.06471354e-02 -2.36008177e-03  8.31029713e-02  1.80561636e-02
  -1.39630830e-03  4.01972868e-02 -8.35010633e-02 -5.34359403e-02
  -1.44580796e-01  6.31198660e-02 -4.41027284e-02  6.22967705e-02
   1.99316908e-02  3.90293263e-02 -1.05466358e-02  5.31378016e-02
  -4.18645032e-02 -2.81944051e-02 -7.48562962e-02  2.88017802e-02
  -6.07005842e-02 -1.76055096e-02  6.80216104e-02  1.49943931e-02
  -9.37991962e-02  4.41125818e-02 -4.74891849e-02 -8.20611715e-02
  -5.20544052e-02  3.63543816e-02  4.77719083e-02  3.64344493e-02
  -2.79052947e-02 -5.94749153e-02 -1.11010075e-01  1.28940418e-02
  -3.12217139e-02 -6.35232497e-03  2.72267107e-02  6.47734404e-02
   4.68136892e-02  1.73847377e-02  2.57066023e-02 -1.99010745e-01
  -3.79606038e-02 -5.46721406e-02  6.75746202e-02 -1.51533289e-02
  -8.02707896e-02 -4.23841970e-03  4.18081954e-02  4.25459780e-02
   1.08098909e-02  4.35876325e-02  2.61758734e-02 -7.06508085e-02
  -2.21946463e-02  1.95590965e-02 -9.01676342e-02  1.37396595e-02
  -2.62852516e-02 -4.30846438e-02 -8.56995489e-03  9.75739136e-02
  -3.40944231e-02  8.56587142e-02  5.75826168e-02 -5.19892462e-02
  -3.37019563e-02  8.01680759e-02  8.10094178e-02  1.23210125e-01
   7.53746927e-02 -1.70231964e-02  6.27108384e-03 -2.04768348e-02
   1.17732706e-02 -2.40889154e-02 -8.07488859e-02  5.77608235e-02
   3.18141058e-02  1.10451370e-01 -4.40316973e-03 -4.41430695e-03
   2.04999465e-02 -6.27478734e-02  3.01841162e-02  1.82056576e-01
  -4.41020541e-02 -1.41854528e-02 -2.49928031e-02  8.08373280e-03
   1.44580975e-02 -8.63604918e-02 -1.21038087e-01 -2.47951932e-02
  -4.73420024e-02  1.34934440e-01 -1.00681456e-02  5.08407168e-02
  -3.08262669e-02 -1.44570202e-01 -7.15058297e-02 -6.33743182e-02
  -1.60919484e-02 -2.06578653e-02 -2.04113387e-02 -5.25202490e-02
  -9.29782353e-03 -1.13485955e-01 -2.50739697e-02 -1.21626802e-01
   5.87646589e-02  4.62164804e-02  4.60739583e-02 -8.64641890e-02
  -7.19571412e-02  2.04380080e-02 -3.68577726e-02  3.17136496e-02
   2.83746049e-02  2.99963877e-02  8.77238903e-03  8.44082758e-02]
 [-6.82571158e-02  3.41115892e-02 -1.09605663e-01 -3.66626084e-02
  -3.14497203e-02 -1.24677485e-02  1.11784246e-02  3.17631401e-02
   8.01484138e-02  2.70248521e-02 -1.41369216e-02 -2.73546632e-02
   3.14379623e-03 -5.93630597e-04  2.71300729e-02  1.37264766e-02
   1.42156668e-02 -2.37361155e-02 -8.06718096e-02 -3.27055044e-02
   5.95939718e-03  9.45493393e-03  3.45895924e-02  1.02151046e-02
   3.33716013e-02 -1.23507157e-02 -7.11221695e-02  2.80703437e-02
  -9.71844274e-05 -3.41940969e-02 -7.05067292e-02 -9.95886978e-03
  -9.48996842e-03 -1.09972052e-01 -5.75777553e-02 -5.64249717e-02
   3.61524150e-02 -4.09923941e-02  1.48073686e-02  3.55327129e-02
   2.91933492e-02  2.92191971e-02 -7.80404499e-03 -4.17446122e-02
  -2.85721142e-02  1.33550055e-02 -1.21961907e-02  3.63283902e-02
  -6.97542056e-02  1.82859004e-02 -3.09001878e-02 -4.79995422e-02
  -1.76119301e-02  1.99538022e-02 -2.33641304e-02  2.94742570e-03
   2.76641194e-02 -3.10657360e-02  1.28768142e-02 -3.48857641e-02
   4.30056229e-02  5.89559935e-02 -2.87189633e-02 -6.44054636e-02
   5.15305735e-02 -4.60854769e-02 -1.73148047e-02  3.30798663e-02
  -4.96713072e-02 -2.20564250e-02 -1.57961890e-03 -4.13234457e-02
   5.29748434e-03  7.29309544e-02 -4.67560329e-02 -2.00169329e-02
   8.92280638e-02 -3.06440871e-02  8.91610328e-03  7.70267006e-03
  -4.78653535e-02  3.55500802e-02  3.16167176e-02  2.79798005e-02
  -4.39608730e-02  1.47094905e-01 -2.75092144e-02  1.33889047e-02
  -1.31084230e-02 -3.57318036e-02 -6.10127300e-03 -2.51777451e-02
  -5.76221943e-02 -1.10770529e-02 -3.82093303e-02  1.31993252e-03
  -1.52945928e-02 -6.03321455e-02 -9.61068794e-02  3.43761072e-02
  -1.30856289e-02 -1.44000471e-01 -5.29276282e-02 -9.14669633e-02
   4.15703142e-03 -8.08763728e-02  4.59535792e-02 -1.54308170e-01
  -2.61044106e-03  1.76990908e-02  1.90037470e-02 -4.57727984e-02
  -4.77512479e-02 -4.58589718e-02 -4.01075333e-02  8.34849477e-02
   2.49290969e-02 -8.03048909e-02  1.44885570e-01 -5.22698723e-02
   8.71854872e-02  5.64630190e-03 -5.29273041e-02 -3.73891927e-02
  -6.02008142e-02  2.97936834e-02 -2.40553264e-02 -9.08565000e-02]
 [-1.16513282e-01  2.19989531e-02  1.06133237e-01  3.15806270e-02
  -7.11738020e-02  1.84277609e-01 -2.71594785e-02 -8.65994245e-02
   5.71551081e-03 -3.64334844e-02  3.40802856e-02 -1.09246083e-01
  -2.90762708e-02  3.60330939e-02 -4.86929482e-03  1.04700640e-01
   3.96215245e-02 -3.32512846e-03 -1.39738778e-02 -7.53143802e-03
   3.24031860e-02 -1.03102244e-01 -6.56030094e-03 -5.18447496e-02
  -7.94955343e-02 -2.07055965e-03 -2.98899803e-02 -9.17311292e-03
   8.16161092e-03 -5.30420709e-03 -3.91440652e-03 -7.85121545e-02
  -5.69528416e-02  6.11662380e-02  2.55483016e-03  1.77534129e-02
  -2.38894030e-01 -2.25383379e-02 -1.30480446e-03  1.06427111e-02
   2.94341911e-02 -3.82806174e-02 -7.63687072e-03 -6.32376224e-02
   2.68432638e-03 -2.20567584e-01  2.93841138e-02 -7.66526386e-02
   1.13293767e-01  4.08287123e-02  2.03591119e-02 -1.24694675e-01
  -5.33064362e-03  1.96864046e-02  2.96027288e-02 -3.79028209e-02
  -2.34496011e-03 -7.53873587e-02 -2.86027677e-02  4.35049571e-02
  -1.27908781e-01  2.96884682e-02  7.30927708e-03 -4.07412276e-02
  -5.31929769e-02 -3.30124609e-02 -1.19807146e-01  3.02595296e-03
   1.15713358e-01 -1.86593905e-02  6.78208396e-02 -6.85101151e-02
   4.86308485e-02  7.51103535e-02  1.56009430e-02  2.97328811e-02
  -6.39464185e-02 -3.16141136e-02  2.36725379e-02  2.49295197e-02
   4.79974039e-02 -5.10603748e-02  3.05733122e-02 -3.30704004e-02
   4.86306846e-04  2.12586001e-02 -4.30484079e-02 -1.87516790e-02
   6.94446638e-02  1.97953749e-02 -3.67037505e-02 -4.03563678e-02
   4.68474738e-02  2.41892878e-02 -4.91484180e-02 -3.72910239e-02
  -7.56098423e-03 -1.22353472e-01 -1.03022471e-01 -2.74700485e-02
   1.63846053e-02  9.67721716e-02  9.15726945e-02 -3.96599956e-02
  -9.16839484e-03 -8.35258886e-02  5.38351480e-03 -1.09297559e-01
  -2.99144834e-02 -9.38078165e-02  5.92753328e-02  2.57903319e-02
  -1.63302869e-02  6.80204621e-03  7.94956386e-02 -7.96265602e-02
   9.13023576e-02  5.61439209e-02  7.66451731e-02 -3.54926586e-02
  -4.90626805e-02 -1.32098272e-01  9.65699181e-03  1.39995990e-02
   5.45685217e-02  5.43453777e-03  3.02624460e-02  3.00569087e-02]
 [-1.51530489e-01 -7.56136179e-02 -4.07317057e-02 -7.18429312e-02
  -6.77831993e-02 -2.96755098e-02  1.95991509e-02  2.73843470e-04
   7.82794878e-02 -5.29194716e-03 -6.78504333e-02 -1.16473317e-01
  -9.38887522e-03  2.69299857e-02 -4.88469703e-03 -6.66438043e-02
  -7.16073364e-02 -7.31490180e-02 -9.29791778e-02  1.06464643e-02
  -1.04572373e-02  2.91049816e-02  4.13866043e-02  5.96227460e-02
  -4.40668054e-02 -1.99413951e-02 -6.95958659e-02  2.50895228e-02
  -1.44483345e-02  5.00814749e-05 -2.68071517e-02 -4.65845093e-02
  -2.00324673e-02  1.74618866e-02 -6.85418118e-03 -1.33864461e-02
  -7.62872323e-02 -1.71454012e-01  1.25371860e-02 -6.09360151e-02
  -8.44297484e-02 -3.77744762e-03  1.89618394e-02  6.79219700e-03
   1.15648517e-02 -1.09395809e-01 -4.73462678e-02 -4.34365049e-02
  -8.31811056e-02 -1.69656798e-01  6.80906931e-03 -2.89908648e-02
  -4.11471836e-02  2.13757139e-02 -3.90387848e-02 -1.91023219e-02
  -1.46249374e-02 -5.66975437e-02 -4.04888997e-03  7.31912488e-03
  -2.58120801e-02  5.66725023e-02 -5.74653894e-02 -1.74501501e-02
  -1.32989762e-02  9.90892202e-03 -4.03544977e-02  2.17791907e-02
  -3.41341607e-02 -9.96218179e-04  1.32287014e-02  4.53105606e-02
   1.56042278e-02 -3.72398943e-02 -4.66628782e-02 -4.47733179e-02
   6.15761913e-02 -4.87323292e-02  5.37562966e-02  4.49960381e-02
  -3.90783092e-03 -5.99493198e-02  6.38822280e-03 -7.32989237e-02
  -1.75629382e-03  1.39222786e-01  2.83581112e-02 -4.42150086e-02
  -7.63778016e-02  2.28944104e-02 -6.92004478e-03 -2.45326161e-02
  -5.90061545e-02  1.36424107e-02 -6.17585592e-02  4.30529332e-03
  -5.53088859e-02 -6.67042434e-02 -8.23320821e-02 -1.02025293e-01
   2.49430239e-02 -6.62889928e-02 -9.14844424e-02 -9.14043561e-02
  -3.42284553e-02  1.12661205e-01  2.64061987e-03  1.32747337e-01
   8.69758893e-03 -1.49421301e-02 -1.40956761e-02 -3.95359285e-02
   2.88116261e-02 -1.50461063e-01  3.16575244e-02 -5.81595041e-02
  -5.24362661e-02 -2.32937764e-02 -1.97330471e-02 -1.27454307e-02
  -4.76667918e-02  5.15295379e-02 -1.09492727e-02 -5.71196415e-02
   8.85649212e-03  1.33207496e-02  4.13604900e-02 -1.22887909e-01]
 [ 6.79506660e-02 -2.19021477e-02  5.93055114e-02 -1.04190230e-01
   3.86856310e-02  3.71087976e-02 -3.49177644e-02 -6.83777109e-02
  -2.16604806e-02 -2.80731115e-02 -1.07172638e-01  7.66698793e-02
   6.95069358e-02 -5.46196848e-02  1.69120543e-02  5.36352582e-02
  -1.37497373e-02 -5.28430156e-02 -3.85621525e-02 -2.07927357e-02
  -3.12628271e-03  4.40483429e-02 -5.20093814e-02 -4.24679695e-03
  -6.17493466e-02 -6.22643009e-02 -3.73271778e-02 -3.22713852e-02
  -3.67872678e-02  3.41941752e-02 -6.98485225e-02  1.57101639e-02
  -6.71731262e-03  6.80435523e-02 -4.99839745e-02 -9.07354464e-04
  -2.95859426e-02 -2.51114815e-02 -8.63748882e-03  5.19407215e-03
   3.09260059e-02 -5.52430041e-02 -5.30481264e-02 -4.87368330e-02
   5.25654703e-02  1.29886530e-02  5.58322258e-02 -3.08674648e-02
  -9.39421877e-02 -1.99225415e-02 -4.10942407e-03 -1.19848162e-01
   5.10666473e-03 -1.29162753e-02 -1.86214205e-02 -2.40711775e-03
  -2.54279841e-02  9.39148851e-03  4.02848199e-02 -8.09445828e-02
  -8.89224932e-03  5.45437895e-02 -3.83969322e-02 -4.65057828e-02
   1.18125714e-02 -2.74482481e-02 -3.63913476e-02  2.75736637e-02
  -6.02451004e-02  1.04478933e-02  3.36856432e-02  3.39164287e-02
   5.84281702e-03 -4.10067923e-02  3.44627872e-02 -1.51461279e-02
   5.56023046e-02  1.20085441e-01 -6.53622895e-02 -6.79748319e-03
   5.00146952e-03 -2.69313399e-02  1.95684619e-02 -7.40043595e-02
  -8.74056965e-02  2.43781004e-02  2.03810446e-02 -3.72705571e-02
  -6.40250072e-02  1.67491026e-02 -4.93002124e-02 -9.68307853e-02
  -6.33481937e-03 -3.10747214e-02  2.12389454e-02 -3.31723988e-02
  -2.78398264e-02 -7.06729591e-02  2.28576567e-02  5.84808066e-02
  -1.69932749e-02 -5.63957505e-02  4.40295879e-03 -1.02025591e-01
   7.51429657e-03 -1.33109530e-02 -6.85723945e-02  2.55680867e-02
   2.31352877e-02 -2.74034757e-02  6.86831996e-02 -7.60231167e-02
   1.99036188e-02  6.68849144e-03  9.31219310e-02 -3.75984306e-03
  -1.27849281e-02  1.67185273e-02 -6.94554150e-02 -2.35137139e-02
   7.31962826e-03 -3.16769890e-02 -6.39696494e-02 -1.82934161e-02
  -3.71952429e-02  3.93060632e-02 -5.70103712e-02 -3.42628546e-03]
 [-1.09685823e-01  1.82591639e-02  1.00255780e-01 -7.90944844e-02
  -6.83871284e-02  6.20063283e-02 -3.28705609e-02 -9.80049819e-02
   7.84150586e-02 -2.46859789e-02 -9.93326902e-02 -9.68847126e-02
  -2.90543735e-01  4.16289419e-02 -5.90092614e-02 -3.40827405e-02
   3.78559455e-02  8.10401235e-03  9.48111489e-02 -2.22355146e-02
  -3.62236127e-02 -9.75700095e-03 -1.49812587e-02  1.95919313e-02
  -5.65368570e-02  1.29432485e-01  6.29103631e-02 -2.28658076e-02
   2.77675036e-02 -5.17495275e-02  1.95291638e-02 -3.10681351e-02
   7.51937879e-03 -1.05636001e-01  5.52215166e-02 -8.76909792e-02
  -1.73694924e-01 -8.85838941e-02  1.69213873e-03  4.54287231e-02
   1.12961400e-02  2.15075742e-02  4.02869321e-02 -4.02224548e-02
   4.28982116e-02 -1.38678178e-01 -3.30426954e-02  1.21779382e-01
  -1.04981862e-01  2.06990913e-03 -6.37435988e-02  1.12836316e-01
  -7.81673193e-02  3.72908562e-02  1.06840031e-02  8.57447181e-03
  -8.12591612e-03 -5.36314659e-02  4.72705923e-02  2.63606012e-02
  -2.49339774e-01 -8.33793283e-02 -5.63756749e-02  1.65544655e-02
   1.38625619e-03 -6.96582496e-02 -2.71128472e-02  4.00064252e-02
  -8.69160593e-02 -9.41908509e-02 -8.98939744e-02 -1.20464042e-02
   3.95518690e-02  7.23728165e-02  5.44379950e-02 -2.20236063e-01
  -5.61353117e-02  1.77254174e-02 -2.87529882e-02 -1.17515679e-02
   1.08064570e-01 -5.67715727e-02  6.29711896e-03 -3.78244892e-02
  -6.84093386e-02 -5.27386963e-02 -6.41720146e-02  3.19768931e-03
   4.04173415e-03 -1.88121535e-02 -1.04947211e-02 -7.65958354e-02
  -4.64395173e-02 -4.74201888e-02  7.13551370e-03 -3.74121615e-03
   4.67746109e-02  5.81767038e-02  2.49374956e-02  2.45939001e-01
  -1.08815581e-02 -5.25650717e-02  1.06474329e-02 -2.67648473e-02
   4.66928072e-03 -5.02450354e-02  2.76211795e-04  2.24695131e-02
  -4.58787493e-02 -1.93933137e-02  8.15632716e-02  2.08613593e-02
  -6.41130377e-03  3.61759253e-02 -3.13349888e-02 -3.06346416e-02
   7.27636814e-02 -8.89911316e-03 -6.27865121e-02 -3.87548073e-03
   2.68153865e-02 -1.67184800e-01 -6.27631471e-02 -1.70725696e-02
   4.38963845e-02 -1.97820216e-02 -3.05005461e-02 -4.59817462e-02]
 [ 1.29878834e-01 -1.29167400e-02  6.95875138e-02 -3.81668620e-02
  -8.24918412e-03 -3.26952673e-02  5.04961275e-02  9.42806061e-03
   1.10436641e-02 -1.00461826e-01 -4.43733409e-02  2.54465155e-02
  -1.80748093e-03  2.63285637e-02 -4.34103198e-02  8.97986591e-02
   1.16948653e-02  1.58577319e-02 -2.09951568e-02  1.44102713e-02
  -8.60523060e-02 -2.86715999e-02  9.03943833e-03 -2.13038009e-02
  -3.06138815e-03 -1.53820182e-03 -1.44925322e-02 -5.09767095e-03
  -7.61169642e-02  2.56979857e-02  1.29973544e-02  1.26654673e-02
   2.40575485e-02  1.54989958e-01  4.34741005e-02  7.36859143e-02
  -5.26668988e-02  1.75977033e-02 -1.02390721e-01 -6.42693341e-02
  -9.67464969e-02 -4.47215214e-02  1.00434972e-02  5.42103015e-02
  -5.82978129e-02  6.35590330e-02 -6.40390217e-02 -4.48589865e-03
  -3.13253403e-02 -1.58563018e-01 -4.54479625e-04  6.31437823e-02
  -4.97046374e-02 -4.13937271e-02  1.41907185e-02  2.32947972e-02
   6.46731257e-02 -1.13004567e-02 -5.53789847e-02 -1.10002235e-01
   2.77441647e-02  1.33756651e-02 -4.86481674e-02 -8.58941674e-02
   3.49755436e-02 -9.53901708e-02 -4.76817749e-02  2.05852408e-02
  -4.72951159e-02  3.70334797e-02 -4.16405164e-02 -5.53717790e-03
  -6.86670393e-02 -4.13398705e-02  7.71232098e-02 -6.43253028e-02
   1.24599244e-02  5.08287475e-02 -5.15013710e-02  4.70430544e-03
  -3.75083350e-02 -1.78068221e-01 -1.07909990e-02 -8.62903520e-03
   6.77119717e-02  1.33480921e-01  4.56843190e-02 -6.23850189e-02
   4.44299467e-02  1.74682233e-02 -4.79878411e-02  1.99026123e-01
  -5.84013052e-02  4.40207543e-03 -1.50689054e-02  4.61647175e-02
  -1.59889441e-02 -9.17489678e-02 -1.76757261e-01 -8.18811283e-02
   3.11665167e-03  1.05369918e-01 -4.70134728e-02  5.21439733e-03
  -1.00720488e-01 -8.71495605e-02 -2.98590213e-02 -1.23878278e-01
  -5.69271995e-03  1.48110252e-04 -2.91782282e-02  5.98110333e-02
   4.43132482e-02  3.00572384e-02 -1.38974994e-01 -4.06242488e-03
  -8.15732703e-02 -7.27957934e-02  1.19316347e-01 -5.96890002e-02
  -1.57079902e-02 -4.29940969e-02  2.76328865e-02 -4.34777997e-02
   3.20797339e-02  4.63264696e-02 -2.62880325e-02  1.15240507e-01]
 [-6.18880056e-02 -6.59905449e-02 -1.57433122e-01 -5.04847318e-02
  -2.41995938e-02 -7.62851685e-02  5.59307560e-02  5.63787557e-02
   6.07806556e-02  1.12071345e-02 -1.69957951e-02  2.92497147e-02
   7.62239769e-02  4.19934615e-02  6.81807194e-03 -3.26519869e-02
  -5.24722822e-02 -3.53866513e-03 -7.01994598e-02 -6.13503009e-02
  -2.00028159e-02  9.29905381e-03  8.12471732e-02 -8.23032707e-02
  -3.96895222e-02  1.13030495e-02 -7.06607848e-02 -1.25115328e-02
  -1.44296706e-01  4.44644280e-02 -1.63013097e-02  7.70888757e-03
  -5.87565713e-02 -1.19373035e-02 -4.36105989e-02 -8.73500779e-02
  -1.37074636e-02  2.26732213e-02 -6.82841986e-02 -3.52567807e-02
   5.65127209e-02 -9.67541151e-03  2.08467674e-02  2.26233490e-02
   1.53108751e-02  1.48593737e-02 -6.38545379e-02  3.06905601e-02
   1.73300821e-02  1.31890597e-02 -4.46880423e-02 -3.77235375e-02
   2.77439179e-03  8.95010890e-04  2.03759763e-02 -5.53345755e-02
  -3.89187178e-03 -1.34994164e-02  2.04913504e-02 -6.75712228e-02
   1.04937740e-01  1.17686344e-02 -7.87417591e-02 -3.38887684e-02
  -4.24023531e-02 -1.04493061e-02 -2.15731114e-02  8.67520198e-02
  -4.05766256e-02 -3.96054909e-02 -1.16190081e-02  1.49558838e-02
  -6.40769210e-03 -2.02250164e-02 -5.81732541e-02 -5.28236330e-02
   7.29202256e-02 -5.42412251e-02 -5.85615300e-02 -1.42669315e-02
  -3.90287377e-02 -3.84075828e-02 -7.06668152e-03  1.66680813e-02
  -6.81791604e-02  1.20251477e-01 -7.18934275e-03 -1.75954755e-02
   1.72555260e-02 -4.71329577e-02 -6.47785142e-02  6.36849850e-02
   2.19242927e-02 -4.66458090e-02 -2.58292872e-02 -7.36917928e-02
  -6.72518611e-02 -1.99328791e-02 -3.58808711e-02  1.43853007e-02
   2.48159654e-02 -1.13081574e-01 -8.49229321e-02 -7.12945759e-02
  -7.32306466e-02 -1.00214079e-01 -1.52119491e-02 -1.49886087e-01
  -3.12213302e-02 -8.69159773e-02  1.32012162e-02 -4.00131457e-02
  -6.12747557e-02 -2.47562658e-02 -1.53947491e-02  1.53983133e-02
   1.27074152e-01 -3.34629640e-02  3.94142196e-02 -7.64507502e-02
   4.11811918e-02  1.04384450e-03 -2.44966820e-02 -3.56386043e-02
  -1.60041247e-02 -6.32425919e-02  1.32605936e-02 -1.01500995e-01]
 [-1.66782767e-01  6.73019290e-02 -2.18861979e-02  9.96698365e-02
   3.03044338e-02  2.36302777e-03  2.21231598e-02 -4.51601669e-02
   6.04623407e-02  3.16985585e-02  7.48535544e-02 -4.19546217e-02
  -9.58318356e-03 -2.45806370e-02 -4.75384034e-02 -8.39615334e-03
  -4.85680290e-02  7.16705546e-02  7.86039531e-02  4.19864655e-02
   6.44607004e-03 -5.35107125e-03  1.62431132e-02 -1.44309911e-03
   1.67245548e-02 -3.35730761e-02 -1.73155684e-02  3.23668607e-02
  -7.43160769e-02 -9.38535761e-03 -2.50528250e-02 -3.72054018e-02
  -2.90869102e-02  7.75407702e-02 -1.11739328e-02 -1.29508637e-02
  -2.41531715e-01 -8.74483201e-04 -7.73423817e-03 -6.75492734e-02
   7.76387826e-02 -7.09148794e-02  5.16487248e-02  4.89248149e-02
   3.14228982e-02 -2.13516235e-01 -5.80386408e-02  1.16872504e-01
   6.45447895e-02  1.39733478e-01 -3.04886028e-02  1.33872792e-01
   6.09988198e-02  3.90684232e-02  3.54550667e-02 -4.62628789e-02
  -3.26437876e-02  5.26201399e-03  4.54645120e-02  1.06406165e-02
  -9.53429416e-02  3.76805030e-02 -2.08845232e-02  2.04096641e-02
   8.29895586e-03 -4.25326712e-02 -4.63420600e-02  2.54234904e-03
   5.04952073e-02 -1.37212887e-01 -1.75937302e-02 -3.59791033e-02
  -6.96563125e-02 -9.16426778e-02 -4.64043356e-02  4.56994176e-02
  -4.42966027e-03  1.18315602e-02 -4.50372696e-03 -1.71932112e-02
   7.24656433e-02 -1.36806458e-01 -4.77607027e-02 -4.49228063e-02
   1.18387432e-03 -3.58036049e-02 -3.90470587e-02 -2.01439057e-02
  -2.85664629e-02  3.08377799e-02  4.90809046e-03 -6.07995763e-02
   1.56799350e-02 -3.78514081e-02 -5.65033481e-02 -5.76402880e-02
  -5.16910963e-02 -1.06135547e-01  3.11675272e-03 -2.83347964e-02
  -5.95574826e-03  7.68612698e-02  5.93964756e-02  7.13877082e-02
   3.10817957e-02 -1.01588801e-01  1.78135354e-02 -2.98053920e-01
  -8.11322033e-03 -1.27111534e-02  7.88047016e-02  3.33750173e-02
  -5.12918979e-02 -1.06693648e-01 -3.82111631e-02  1.00251650e-02
   1.17592804e-01  2.42797211e-02  1.26824575e-02 -6.41596615e-02
   2.29484625e-02 -1.46812633e-01  4.49887142e-02 -6.89721573e-03
  -2.38780994e-02 -5.46619259e-02 -6.54896051e-02  5.56908250e-02]
 [-8.85429457e-02 -4.69671283e-03 -8.22226852e-02 -7.74825811e-02
  -3.08907833e-02  7.04309195e-02  2.68513206e-02  5.61550446e-02
   4.76996563e-02  9.02006105e-02 -7.57420585e-02 -6.10529780e-02
   3.31979361e-03 -3.44646326e-03 -2.51230709e-02 -1.96223166e-02
  -7.28358030e-02 -7.42072240e-02 -8.90747383e-02  2.57872120e-02
   3.27106975e-02 -2.93537676e-02  3.21431570e-02 -4.94314283e-02
  -5.96514568e-02 -6.30897209e-02 -7.37311020e-02 -2.14400198e-02
  -7.79946800e-03 -2.81474553e-02 -3.52978073e-02 -2.53121126e-02
  -4.11713533e-02 -3.97741236e-02 -3.79893109e-02 -1.02787407e-03
  -1.36971787e-01 -1.38947859e-01 -3.11217606e-02 -5.53889684e-02
  -3.56615223e-02 -4.79635522e-02  2.85918843e-02 -1.41528090e-02
  -2.92869080e-02 -4.99182828e-02 -4.98238066e-03 -3.33638974e-02
  -4.08774577e-02 -1.80083260e-01 -2.09303331e-02 -4.65074601e-03
  -6.89478964e-02 -5.19114658e-02 -5.54526448e-02  2.20523681e-02
  -5.59199825e-02  6.44452646e-02  3.80796082e-02 -2.66918074e-02
  -8.16152692e-02  1.02587231e-02 -1.58610567e-02  1.93886533e-02
  -1.87577382e-02 -6.58815959e-04 -6.45146370e-02 -8.84518623e-02
  -7.30653554e-02 -4.58433367e-02  1.03797903e-02 -1.31873228e-02
  -3.46288495e-02 -8.43579769e-02  5.36316894e-02  6.41920492e-02
   2.25212462e-02 -7.76445046e-02 -1.51604526e-02 -1.72384437e-02
